0.47143515944480896,-0.8870153425496476,1.4327069520950317,0.8221284122189254,-0.720588743686676,0.8871629238128662,0.2837878624069472,-1.6739183470758345,-0.824955127769931,-2.242684841156006,1.3265874181131703,0.9919460415840149,0.9533241391181946,-3.1119885592022545,-1.688635490089574,0.0021183646749705076,0.4054534137248993,0.28909194469451904,2.508455740017521,-1.2818535405561136,-0.20264632999897003,-0.6559693217277527,0.14722154453175537,1.238208114017974,1.318151593208313,0.4817046223519059,0.416322357106662,-1.81702721118927,-0.18310853838920593,1.0589691400527954,-0.644904618088021,0.2828991236164905,1.0475785732269287,1.1685075726128975,0.8637173175811768,-0.12209157645702362,-1.3714343698399898,-0.11264668509250358,0.3657901591123758,1.8602413887119695,-0.25574174156587426,-0.5664459466934204,-0.8515662219231356,-1.2925822724999647,0.24779219925403595,-0.5379021365481862,-0.1367948353290558,1.6328956330106714,0.7554140090942383,-0.09475534568730237,1.2187049195269348,-2.52339750076615,-1.4019732475280762,-0.9652226331887586,-0.548242449760437,-0.14461950957775116,0.41834155687542995,1.4151798470666375,0.565738320350647,-0.005246361572147862,1.002936565889526,0.022386118133966362,-0.5219864344129163,-1.5286201987635721,2.190842498543759,-0.9085888249991709,2.0306036472320557,-1.6329556050455927,0.21188338100910187,1.4832005751817543,-0.7854351997375488,0.46205973625183105,0.7042282223701477,0.5235079526901245,-0.9262543320655823,2.007843017578125,-0.2532179489357998,0.024240177469415425,0.6319794654846191,0.03951268643140793,-0.6820227640216661,-2.7761767019844936,1.3211055994033813,0.15263055264949799,0.2688030880398987,-0.43009570240974426,1.9969643904192318,0.9849198460578918,0.27083584666252136,1.3919862508773804,0.8181151630312882,-1.4786845983375572,-0.7071867297831127,1.1670838152078193,0.8165939450263977,1.1014745369532037,-0.21713203002997497,1.5049523546600363,-0.5194774140909985,-1.5673946281501803
0.29120534658432007,0.26257336123403485,0.503591775894165,-0.8494846195896835,0.48428812623023987,1.3634815216064453,-0.20530475770113665,0.5693771943601516,2.065225828075631,-1.2811082601547241,0.6989238466878551,-1.7107152938842773,-0.45076510310173035,1.839897587732375,1.1506252653895999,-0.182175412774086,0.6806560158729553,-1.818498969078064,-1.1402259335943339,0.12979222716538175,-0.24843205511569977,-0.6177066564559937,-0.6366841436900424,-0.24851161133242705,-1.7030128240585327,-0.557299285971901,-0.22009227340266724,-0.2990162968635559,0.6941033005714417,0.6786296963691711,0.4866203860676429,0.20576516073199738,0.8161272406578064,1.7709651027105888,0.6396327614784241,-0.9620288610458374,-0.5891183151227597,1.7200986008334704,-1.2594642943205057,1.7411027198695734,1.129376735595873,-0.37981078028678894,1.5902703706031072,-1.6327416310606737,1.1768124103546143,-0.8835907380741588,0.7009077072143555,-0.630418361528323,-0.12172840535640717,2.6757925988287057,0.11844678669178466,1.8741822793611207,-0.47402089834213257,0.8076087112782342,1.3577972650527954,-0.804833710193634,-2.1879415012285337,-1.78419531348848,-0.8867193460464478,1.885103126842381,-1.44038906098764,-0.8365613811811847,0.5097514187821942,0.4039225880276789,-2.0167100918321808,-1.2658792601706212,0.6287758350372314,0.6768186631358026,0.9524783492088318,0.2096576439649741,-0.07260831445455551,-0.550602912902832,-0.9381526112556458,-1.2390716075897217,0.13968327641487122,-0.22301898896694183,2.6038722827656797,-1.0546257983614633,-1.4094316959381104,1.4229859113693237,-1.0014399451667952,-2.1348724255942417,0.36356455087661743,-0.01475211139768362,1.1681215930275681,-1.4495666027069092,-2.4251193953974117,-0.5918629765510559,-0.41450485587120056,-1.4257947206497192,-0.5288780661255799,0.48583399666443094,-1.7937801767644337,-2.648382679095606,1.10435152053833,-1.6149711072423387,-0.2887709010641947,-0.08750675462723001,-0.2611345479890034,0.003974392039493013
-0.3195613920688629,-0.9239534141260726,0.1569983810186386,-1.7062356741150588,1.0576331615447998,-0.7914888262748718,0.05117319430234235,1.1092729002388861,2.751410949611886,0.7879647016525269,0.33653046747642934,-0.5464162826538086,1.0439445972442627,3.19851900620848,2.8144855715333605,1.0154054164886475,0.7491846084594727,-0.6755214929580688,-0.7470311687418101,0.42391990007607205,-0.27664613723754883,1.9245333671569824,0.4574038444481564,0.2059957395892038,0.22636322677135468,-3.029627710425636,-0.12865448658511658,-0.08710697293281555,1.1263858079910278,0.2471117228269577,0.3682361887133262,0.3535224674269818,-0.1570991426706314,-0.8630383576966683,-1.2476528882980347,0.24945521354675293,2.0772206650751466,2.553695903270299,0.8752099567590537,1.1992072111033991,0.05616759887140099,0.5004829168319702,1.7507730427985417,-1.8340232382117052,-1.3920540809631348,0.7946675617534169,1.1819441318511963,-1.2232349825934627,-0.8810470700263977,0.6051038743108833,1.486104984571576,-0.6346865341535888,-1.407084584236145,0.9910856100974423,0.0037598477210849524,-1.2689942121505737,-0.9031641579553707,-0.8967716491570439,-0.5040427446365356,0.7624650204962506,-0.44777216912667805,0.11272385780006226,1.1429684257039625,2.186642140544616,-0.8579712402849393,-0.4153241531731313,0.3631773591041565,2.3840041699564813,-0.48575273156166077,-0.3908055079667886,0.02355761080980301,-0.660229504108429,-0.3186849355697632,-0.7226622104644775,0.17738671600818634,0.9835126996040344,0.5036850705369045,-0.6231222565938661,0.35376930236816406,-0.275593638420105,0.6559315162246537,-1.161776501932056,-2.3975040912628174,1.541029930114746,-0.04118900564386828,-0.28444069623947144,-2.49519621863197,1.7879796028137207,-0.3545086979866028,-0.10476112365722656,-0.3520191641480408,1.9014953912605308,-1.0044536281880787,-0.6945987497476143,0.031879972666502,0.15976085663057082,-0.17817368174604317,-1.3406741752529165,-2.1028537283345385,0.736215545756534
0.5270464420318604,0.40715205653127606,-0.21754547953605652,1.5030108421126633,-1.7421376705169678,-0.09443480521440506,2.0069842180145008,1.6301532790216353,1.0109483931305248,-1.7517060041427612,0.11202963253456535,-0.5425795316696167,0.17160238325595856,2.073551609949172,1.329209230095067,-0.28755244612693787,0.9244428873062134,-0.061246298253536224,-1.9183308945127604,-1.2878257196977927,0.9959929585456848,0.9555579423904419,0.7600406168423367,-0.5513982463975058,-0.8070383071899414,-1.2930206952927323,2.1680113607163665,0.1559232622385025,0.7596525549888611,-0.42300623655319214,0.42873713833452676,0.3290310977027081,0.06791235506534576,-0.15955213492287784,-0.17080102860927582,0.26697322726249695,2.8791445957201356,-0.23260898411387726,0.6072798961339774,0.9651562517547206,0.5964753889123708,0.5656583309173584,1.4727924171691167,-0.9566935161648531,-1.07136869430542,-0.4077151406270019,-0.8452903628349304,-1.1995058966712215,0.4255305826663971,-0.6707004069238579,-0.8055222436884644,2.576157386554114,-0.3601565659046173,0.40606403977254457,-1.337968349456787,-0.04138654097914696,0.7567267321660892,0.6471078598151241,1.282933235168457,1.821243127662541,-0.9740325451032406,0.9859426027932721,1.1707079803475935,1.1220464710366358,1.3244166481466098,-0.10660988258139548,-1.154600977897644,-0.7777447161519171,0.6078621745109558,-1.858576442071708,-0.61128169298172,0.10203511267900467,-1.4365739822387695,0.21071705222129822,-0.8969041705131531,-1.7243931293487549,2.2725196912510923,-2.489611905412836,0.5558774471282959,-0.681881308555603,2.719157798821242,-0.8919914926075054,1.8503978252410889,-0.33335041999816895,0.08919069352672117,-0.49674493074417114,-0.1968724681360592,-1.7398037910461426,-0.7558621764183044,-0.881111741065979,-0.3443805905014954,0.12869446886673197,0.011842847937638512,-1.2228576098588508,-1.1205209493637085,-1.1351573824860979,-0.06564554015807053,-2.0041798784637472,-0.7878467569752857,2.987691475970462
-0.22663229703903198,-0.6198704241078752,0.35583898425102234,-0.13528320482170875,-0.19547241926193237,-0.4634194076061249,0.41361434851763446,0.3512525752035234,0.24706221780754745,0.43880125880241394,-0.785050591435017,1.2456098794937134,0.5029255151748657,-1.7221325783291463,-2.058810196071782,-0.24048253893852234,0.5855993032455444,0.35280054807662964,-0.6282601489595296,-0.6450718480512307,-0.7485279440879822,-0.10812492668628693,0.22857900872605316,0.9221189756293402,-0.25984370708465576,0.6385677157280656,0.18927801315829773,-0.05953196436166763,-0.4700148105621338,0.3495667576789856,-1.2745331869757317,-0.361177015118327,1.4061760902404785,-1.1271274123571953,-1.56014883518219,1.5573976039886475,-2.089503692247235,0.03985959187263771,1.196742326623362,-1.0715188628100947,-1.0160696767846853,0.5999621152877808,-1.1049072895055043,1.1139218817053576,-0.38336458802223206,-0.42256142686190684,0.26623740792274475,1.8940344763831356,-1.21962571144104,-1.033972823724183,-1.3570821478863953,-0.8059266462453523,0.09911201894283295,-1.2273943486867291,-0.5882267355918884,0.02594171278178692,-0.5079811119153873,2.556279877459046,-1.2080155611038208,-2.8906062448805585,4.052358174337554,-1.396678686777647,-1.9809083437451918,-0.9010616246831049,1.570447046759625,2.209441663491887,0.2617248296737671,-0.7330955805933832,-0.5012681484222412,0.08035096056154567,1.384580135345459,-0.2864254117012024,0.5000695586204529,1.9511032104492188,-0.27836745977401733,0.03678625822067261,-0.03432796742754479,-0.23345156352026963,0.4500012993812561,0.5154795050621033,-2.300499065453322,-0.5928335299111294,-0.49583300948143005,-0.41327908635139465,-1.6150431800179246,-0.02956090308725834,0.46355574860404625,0.09988207370042801,-0.7130239605903625,-2.2261176109313965,1.4639869959980927,-0.1617437542785667,-0.2432264398279736,0.2296224390176338,-0.014278789050877094,0.9367007821776796,-0.03769548048564056,1.0957782103920004,-1.5254691114024,-2.058268501383975
0.523546040058136,1.12547761218134,-0.14874185621738434,1.0894099035283298,-0.7044929265975952,1.7303155660629272,-0.34687326754452985,0.055346150681123474,-1.1942230347635585,-0.030658865347504616,-0.023620164002956773,-0.48131024837493896,1.711426019668579,0.3446533532580729,-2.5220784164964343,0.0408434234559536,0.3620181977748871,0.5725921988487244,2.2917578087278483,-0.16062004746643765,0.7556888461112976,0.01028145756572485,0.17838593736069672,-0.44993907321499726,-0.9515209197998047,0.8238794504044267,-0.23028724166407566,2.1040773391723633,1.567514181137085,-0.6242296099662781,-0.6477085993921897,-1.191600131802287,-0.9031590223312378,-0.9747087989233574,-0.07130920886993408,-1.3193390369415283,-2.0562402473467225,0.375102667958682,-1.1074703031717124,-1.397788847055395,-1.334503974823168,1.2073482275009155,0.8242788609261286,0.15780586102588368,-0.21214580535888672,-0.8343095381099233,0.6575859189033508,1.8146863294676998,1.0912598371505737,-0.7990459741205299,1.7459163472155335,-0.18596231485687875,0.8375661969184875,-0.35015971094945497,-0.05004969239234924,0.7439528703689575,-1.6597289346769228,1.5405944457998242,0.3227395713329315,-1.9280546212977185,1.9769519771118795,1.1428446763357563,-0.9986544048318463,-0.5222449604642023,1.7095661056070524,0.3387715237023061,1.641552209854126,-1.929302150265014,2.0277395248413086,-0.5868373858244101,0.07214885950088501,0.6131516695022583,1.4891663789749146,0.22129657864570618,-1.5308921337127686,0.8018882274627686,-0.9046471848710109,2.2957542355825136,1.5695480108261108,1.4277317523956299,-2.518252952629836,0.5209220240496708,0.7792145609855652,-0.10281429439783096,-0.4821911025337936,0.24025265872478485,0.23154001965354576,0.19116991758346558,-0.9528030157089233,1.470996618270874,1.457177761378952,-1.2452796043266319,1.0852750827130726,0.5623585735467476,-0.5348572731018066,1.1618237405993868,-0.9775575976569281,-0.07928212142944113,1.5708670149251147,0.6541427830627409
0.029561951756477356,-0.18011830763403003,0.28943005204200745,-1.4362725586613387,0.4144349992275238,0.9498578906059265,1.0976490816009263,-0.9318679764715287,1.3434615019800502,-0.3544224500656128,-0.6235421691278797,-1.116978406906128,-0.7882663607597351,2.1464859394589073,0.05001690164200312,0.5397352576255798,0.34699124097824097,0.8741928935050964,-2.762476907772648,-0.4250356268719031,-0.6433332562446594,-0.7153708934783936,1.7456587909184171,0.5980680595736398,-0.45255765318870544,-0.5572097597954484,0.6849723392243622,-0.13004742562770844,-0.3937331736087799,-0.6410597562789917,0.41902864438654397,-0.7856105091050006,0.8649982810020447,-0.3274306472159782,-0.1070733368396759,-0.24210669100284576,0.5936645732897159,0.587722764461095,0.18678873717172761,1.207696700658758,-0.011242691369840463,0.48721012473106384,1.6533735100035893,-2.982959748297765,-2.596062421798706,0.11642019937815745,-1.5948855876922607,-2.724683226449893,-0.9984064698219299,-1.9657827376275931,1.1751110747357605,-0.07171136592543936,0.18853062391281128,1.8532682123837811,-1.5861363410949707,-0.4723808765411377,-0.25316757926198086,-1.2395657843699421,1.6117223501205444,2.117635628063084,-2.618350112451721,1.446042895952757,1.1396192705163557,0.8712727431428064,0.6120587694616122,-1.2236642556072896,-1.462225079536438,2.341134482876098,1.7007695436477661,-0.42508890754869777,0.3364890217781067,1.0571054220199585,1.198678731918335,-2.5946543216705322,-0.7147454023361206,0.8043460249900818,1.671835882924371,-1.3042646165658662,-1.0749752521514893,1.4482691287994385,0.8680608110969377,-1.824158538379581,0.20145146548748016,0.5017557740211487,1.509061353235698,-1.8977106809616089,0.06948686108757363,0.553184449672699,-0.20036229491233826,0.5456699728965759,-0.4759862156540833,1.2977902383913063,0.611689181202943,-0.008749559989313482,-0.12470368295907974,-0.22938994169019944,0.5844169836241827,-1.5560008718872091,-1.3113308678075,2.717015459162906
2.547691583633423,0.26504800112429683,-0.3564092218875885,-0.7277883022109299,2.6519992351531982,-0.13623036444187164,-0.4720511799586038,-0.9219626367243674,-0.5819810215475398,1.4877433776855469,1.6308951173166615,0.704308271408081,1.4663513898849487,-0.737111612991393,-2.4400816179811144,0.3632097542285919,-1.8132771253585815,-0.19791075587272644,1.6201721594759104,-0.2755138117238687,0.29563066363334656,2.0798442363739014,-1.8886328099690153,0.173603175987731,-0.5809351205825806,2.013746410453102,-0.24117663028492908,0.02279840037226677,-1.6797914505004883,0.8124229907989502,-0.8729530916845939,-1.3048093793913984,0.6151354312896729,0.0011747073151031212,-1.2808952331542969,0.32460981607437134,-0.8255779014604923,0.3593094338488035,-0.14882072746141572,-0.8836807554626064,-1.2374689840356619,1.6761853694915771,-0.20671215689232236,0.07867777445895863,0.10207974910736084,1.5543107192677013,-0.2779593765735626,1.562441149158881,0.35368359088897705,-0.7183346987814033,-1.4327335551282165,-1.9808954551347413,1.0540450811386108,-1.8451812925992352,0.3520788848400116,0.6659818291664124,1.129822681038104,1.2222592628350224,0.36448389291763306,-3.0657518709486737,1.901911588026691,-0.20432707730918703,-1.557369658900221,-1.5659967813861002,1.0290928375749784,1.1225541250588125,-2.623004198074341,1.6255263743245245,0.6855615973472595,0.6210359734981378,1.3812878131866455,0.06842655688524246,0.3125362992286682,0.4542531967163086,-0.7884718775749207,-0.06584033370018005,-1.898660285733514,1.0371458943654726,-0.5553548336029053,-0.5019177794456482,-0.453296585613997,0.5419794211768223,-1.2694318294525146,-0.26232385635375977,2.4418721031852004,-0.7817174196243286,1.30969540312122,-1.3394111394882202,0.4134509563446045,0.20445196330547333,1.2167261572510681,-1.0491390561123155,0.13822179926008488,1.7692687180844349,2.0542895793914795,-1.3484616518042158,0.5514486748974695,0.020980699291231475,0.41583718160831185,-2.132916643244937
1.2499024868011475,0.2671884296697038,0.297048419713974,-0.2629151017388076,-0.16371119022369385,0.6895232200622559,2.560390456570409,0.919112975910559,1.795781422043069,-1.1805528402328491,1.293922206368031,-0.0215578842908144,0.7108614444732666,0.2788987307110433,-0.8966549418867444,-1.1261001825332642,-0.30786675214767456,-0.9618845582008362,-0.5164716110654948,-0.201668546779473,-0.656795859336853,-0.28836318850517273,-0.17359366431611054,-0.48452125381423095,-0.8455002307891846,1.6919127406241683,-0.07451302473590393,-0.14550836384296417,0.8933687210083008,1.2885547876358032,0.5782625721132896,-0.020829361863408197,-0.06114765629172325,1.7334874902151665,-0.7530412673950195,-0.34022587537765503,0.9451512561815616,-0.8141854543995313,2.598474591368276,0.5510245861523942,-0.5343187190016001,-0.35588839650154114,-0.06663414800117129,0.8090687980355482,0.0005873380578123033,-0.8232863645714275,-1.5237107276916504,-1.459736080272601,-0.8406493663787842,0.32070971067252996,-0.9214365288714172,1.7530427529939332,-0.97334223985672,1.6826525393185956,-0.11601728200912476,-0.6908581852912903,0.9746342205121891,-0.46942100886010785,0.6166207790374756,0.7634181583708539,-1.9563161391900068,0.5066089040437298,0.4517600333222943,1.264652669824325,0.8264463055105014,-1.4139767156721776,0.4045844078063965,-0.3586852011525275,-0.07808979600667953,-1.305792177984031,-0.24268794059753418,1.106949806213379,-0.03552991524338722,-0.9599149823188782,-0.6289509534835815,0.26851481199264526,0.9685413077099849,-0.5900606330205629,-0.175392746925354,-0.43342626094818115,1.1900871085470033,-3.156232822933109,-1.5927211046218872,-2.4416706562042236,-0.36700735804512485,-0.822618305683136,-1.2718639960808624,-0.3912701904773712,0.23058049380779266,0.3285638988018036,0.09977572840147397,0.17083840979233011,-0.36240929258436466,-3.746137693991999,0.10816425830125809,-1.772707259652846,-1.1126142163079156,-2.012841625442507,1.490174578626521,0.3967562457153353
-0.6079835891723633,0.5624925492566484,-0.7414695024490356,-2.605341819020149,0.7084740996360779,-0.1285123974084854,0.41516069973828595,2.1145651146921063,0.22725408115409196,-0.7117636203765869,-0.11111314037841377,-0.4214708209037781,-0.34121689200401306,2.402770295576156,-0.46837434992202276,0.21537593007087708,-0.6707133054733276,0.2597174644470215,-0.7177481518217204,0.22718112053124173,0.5121705532073975,-1.1420202255249023,-0.06869402691500656,0.5812056671481027,-0.9292300343513489,-0.760094582879326,1.2607874208207366,-0.09742148965597153,-2.1195969581604004,-2.1969218254089355,1.3693322287237786,2.0663805482909345,0.30201074481010437,-0.6122309531785408,-0.5135490894317627,-1.0739210844039917,3.699661897279584,-0.5089765627693585,1.8219828301606955,1.1575395708942011,0.26613057783048455,-1.843865156173706,0.9976807016735304,1.2241656770409803,-0.7578505873680115,0.6567432482081899,-1.5924931764602661,-1.3222399068907955,1.3370321989059448,0.06677001129094007,-0.6087197020748856,0.7386581256517091,0.31861600279808044,2.2613431277928693,-0.8798130750656128,0.11182047426700592,0.3672468864038364,0.1630922758231197,-0.2973845601081848,3.1898674572294965,-1.8430762827531582,0.07930636469512757,-0.5350618863573474,0.8988557461869349,-0.2764016282587247,-2.9644313471199695,0.7577097415924072,-0.14628071163531559,-0.01583816111087799,-1.1662946892469246,0.8896633982658386,1.1341571807861328,1.7316302061080933,-0.7055198550224304,-1.2858104705810547,-0.6382100582122803,1.1809652879460384,-0.2957587059308717,-0.6532037854194641,-1.3199659585952759,0.3277025061195207,-0.6246376971386982,0.66975998878479,-0.5740804076194763,0.6394135523133041,0.6167126297950745,-0.257728810451733,-0.7119035124778748,-0.7356927990913391,-0.9634637832641602,-0.2791351409584961,1.7349582256187461,0.43083968865304684,-3.623985603919367,-0.5562800765037537,-0.9112576305844713,0.8039117436606512,-0.6491319074535392,0.1913024057940319,0.25360830031128256
-1.5822080373764038,-1.3162299392979997,0.046561889350414276,-0.5450485675612717,1.3958923816680908,-0.8449714183807373,0.23820640240786273,-1.087137169406071,-0.3064047578813869,-0.8070091009140015,1.0181924496034962,-0.5581726431846619,-0.6291574239730835,0.0869333596667643,-2.1996388651429797,-0.2814389169216156,1.7199569940567017,-1.077499508857727,-0.19098414321459556,-0.03009243191925748,1.62885582447052,-0.3774375319480896,-0.019441908451147155,-0.23746901858853242,-1.4167574644088745,1.8145379124520036,-0.4636375241990326,-2.109839916229248,-0.5260840058326721,0.05237593129277229,-1.9912579403555535,0.0006804810836650022,0.4334734082221985,0.07251013105286748,-0.6505124568939209,0.8973140120506287,-2.8674080835359925,0.46310661628956123,-0.9638960355459036,0.106651043329279,-2.2214456461946277,-1.7218513488769531,-1.37795218861153,1.658626020937993,-0.4986065626144409,1.0428574483555308,0.36772438883781433,2.6869052065448025,0.03658004105091095,-0.14979966889325025,1.6831834122637512,0.20451587890303946,-1.3244247436523438,-0.64378193647245,0.16455715894699097,1.6594668626785278,-0.9085279010846988,0.701788166796204,0.7648091316223145,-1.54428475289032,2.168873170031715,0.12174755085021678,-2.7191780304441053,-2.9062961641919243,1.9152914178400235,1.7298874722601598,0.08783289790153503,-1.24065154220227,0.48010337352752686,0.019767071077140153,-0.34964102506637573,0.02713487483561039,-0.6073651313781738,0.04747944697737694,0.22653739154338837,-0.22852542996406555,-1.1195059850438167,2.1466973837186525,-1.088442087173462,-2.178919553756714,-1.0926384093706918,0.5680023769520832,-0.6063673496246338,0.6947053670883179,-0.06515307906196134,-2.530858039855957,-0.8673906372563969,0.02369009703397751,0.282683789730072,-0.7921525835990906,0.37331787067956546,-1.4960046054233573,-0.0045426498594829945,2.0671609793809456,0.02199464663863182,2.2915816068627763,0.47060337851456546,0.7327882482910179,2.391021801035039,-1.5137945850917849
1.571395993232727,-1.1019467113774675,0.0072646429762244225,2.964792516919014,0.6478541493415833,0.5065929293632507,1.0548583427536269,1.191610474869356,-1.2072119299413997,0.0679105892777443,-0.10911043545204582,0.24997124075889587,-0.4042879641056061,-2.0873356012859947,-2.1649569489061022,-0.7104141116142273,-0.8525586128234863,2.710361957550049,1.218248549578416,-0.6406788069173501,-0.09202970564365387,-1.4114055633544922,-0.32548711285216336,1.5436196316380606,0.9894191026687622,0.7314644901392671,0.029757655311083986,1.5663334131240845,2.4445598125457764,-1.2869181632995605,0.931440676625953,-0.41483648400756346,1.8724194765090942,-0.3089044127844414,1.4018422365188599,1.240844964981079,-0.4270362125414249,-0.8799276213336535,-0.4244066657064738,-1.4213087206744746,0.6676505542715281,0.7787187695503235,-2.1277352277045476,0.005886317282750131,-0.9067375659942627,0.7915812831085673,-0.41759738326072693,1.5891827283338764,-0.7377010583877563,0.3408805488496697,0.8360377654532196,-0.5096254899629273,-1.1106528043746948,-1.2985489133057935,0.8353271484375,-1.9085230827331543,0.5117949641630276,0.893991867338654,0.2956177592277527,-3.5404483879393354,2.856706404699493,0.39179974730819883,-0.9589871561059552,-1.2819672603380312,1.8424898278742032,1.8396931307198232,-0.8341233134269714,0.39475036238070743,-1.068097710609436,0.8000076384781917,1.5716609954833984,0.8839555978775024,-0.16809526085853577,-0.7399212121963501,1.3937631845474243,0.06121652200818062,-0.5440235718710948,0.24479739029900527,1.2921181917190552,2.4181406497955322,-0.8015571969096971,-0.46733392377862204,2.388913869857788,0.6686242818832397,0.33707131263687595,-0.4635043442249298,1.0436292840463985,-0.2358306348323822,-0.2356301248073578,1.4915332794189453,-0.2578995792239227,-2.517751389871981,-0.3496543477716992,2.3041365896371406,0.002698046388104558,0.04808173179411179,0.18815533260516068,-1.1437774465179422,-1.6427822579935865,-1.1671145772168192
-0.4786735475063324,-0.7228856982428176,-1.782775640487671,0.8862138717452317,0.6523780822753906,-0.8578899502754211,2.4503861507308704,2.630341152861967,3.136615264797433,-1.2101320028305054,1.2814589943547863,-0.16069866716861725,0.20109312236309052,1.4769105462589864,1.7363876320420886,-0.6519191265106201,-1.4876606464385986,1.5167182683944702,-1.416416169805157,-0.10113157449515597,1.4965293407440186,-0.5992504954338074,-0.7139694930590915,-0.7550262797970877,-0.14426274597644806,-0.7579120097992631,0.2555659063237844,0.76470547914505,-1.0285511016845703,-0.42459675669670105,1.0099850640928887,0.5696589229628705,2.5779001712799072,-1.1861188377953926,0.18371161818504333,-0.3002271056175232,0.6429783569353458,0.9102899889636584,0.5961963081298651,1.7333070283794,-0.07796755799848731,0.43419843912124634,1.4850790802245366,-2.3937970409689684,-0.4057499170303345,0.025831719144011334,-2.0196521282196045,-2.5269033325747707,-1.3192154169082642,0.3605946802646244,2.147833009054303,1.6556600287088075,-1.12660813331604,0.6892774018702847,-0.08948608487844467,0.501965343952179,0.29346572390345493,-2.3273700273385014,-1.5200622081756592,2.095716079551579,-1.0846140027181392,-0.7142240994772358,0.7511960288414555,1.1625405106913675,-0.9671691548853116,-0.6727628128411001,-0.6736549139022827,1.6721427979624628,-1.511218786239624,-2.2163280499666054,1.7074137926101685,-0.6109769940376282,-0.6916284561157227,-0.5491267442703247,0.7066009640693665,-0.8928446769714355,1.6893162563069393,-0.6371137316991518,-0.47449034452438354,0.38186484575271606,0.935411750013144,-1.145176936187656,0.960105836391449,1.929875373840332,-0.2215566095419167,-1.0439271926879883,1.0752689884679447,0.7401407361030579,-0.2811708152294159,1.0973775386810303,0.13681536596708677,0.25923007143631205,0.3091345142069409,-1.1137034450677437,-0.12762877345085144,-0.6107305645921159,0.2135715763766394,1.1291194722747782,-2.320383382837407,-0.512203381436154
1.0406990051269531,-0.6935285331446273,2.4786806106567383,-1.9865257413109512,0.17509135603904724,-1.241137981414795,1.1901581128967027,4.163030008986845,1.495021391296609,2.0953445434570312,0.8711598124166149,-0.6607308387756348,-1.978995442390442,2.6009887604275352,1.9264678575097705,-0.23394404351711273,-1.383859634399414,0.7394479513168335,0.22167445560015464,1.8532816010877298,0.5803067088127136,-1.1070421934127808,-0.11756570055859558,-0.17802590023470977,-0.028589298948645592,-1.456638008200905,0.25791835066239666,-0.7613824605941772,-0.4878145754337311,0.22112387418746948,0.23177826025696016,-1.5144750596955157,-0.3680851459503174,2.9870660338781914,-0.6232073903083801,0.9777184128761292,1.6494541184681293,-1.1917733688663892,0.11578348218782564,2.025886202421148,0.5136502795497686,-0.7675489187240601,0.5468505326514471,-0.4099858711062212,0.3059219419956207,1.0802999336558827,0.28601694107055664,0.48927634824950905,-0.653629720211029,1.0883767248243417,-1.060527484128833,1.1244973271616616,-0.7441002130508423,1.1750439766106946,-0.28249016404151917,1.5872691869735718,-1.0781230426714048,-0.07703922155999798,0.6579779386520386,2.106638988334538,-2.407482975734878,0.0005891701975422742,0.5400105809697705,0.7335831824910273,-1.0332742375164228,-2.146181644666356,0.9377871751785278,1.3295650425112604,-0.6673312783241272,-0.43656625873735744,-0.9976395964622498,-0.8935585618019104,2.3646974563598633,-1.8614239692687988,-0.635971188545227,-0.6923052072525024,0.2949219032748272,-3.0743200000096986,0.580717146396637,0.02691517025232315,1.8629230099265885,-0.1717736015700413,-1.090433120727539,-1.5082892179489136,1.029105560808635,1.0229341983795166,-1.5509484364015926,-0.5384587049484253,-0.08382295817136765,-0.3974720537662506,-1.0575634570748291,2.027254277597811,-0.8603618432340077,-2.048138335814814,-0.07196657359600067,0.21562972069001907,0.5911717992026434,-1.8403353526496908,-0.5962307992085144,0.3046784540245089
0.2914954423904419,-0.22415901720523834,1.0892701148986816,1.011387586593628,1.1246455907821655,-1.8708441257476807,0.17573881149291992,-0.7765863537788391,-0.30386489629745483,-1.2404024600982666,-0.5075722932815552,-0.3544772267341614,-1.0460104942321777,0.39367276430130005,-0.34564805030822754,1.3131695985794067,1.60831880569458,-0.2192092388868332,-0.3484809696674347,0.3013504445552826,-0.22529739141464233,-0.6624343395233154,0.911714494228363,1.190824270248413,-0.10969945788383484,-0.3583377003669739,0.5703098773956299,0.3916856646537781,0.41016945242881775,0.707859456539154,-1.1007969379425049,1.5648503303527832,0.5622429251670837,-0.737363338470459,-0.5890225172042847,0.45794716477394104,0.005271827336400747,-0.12097994983196259,-0.3533545732498169,1.5530441999435425
0.3060851631221898,1.7462299944058273,-0.3954352039422075,-0.6944019511174877,0.6306713014136431,0.2122167793870175,-0.6800794516109323,1.5342392421147357,0.34917085966056716,-0.5785186730066838,-0.7101254814132223,0.6290572167396373,-1.7495411792402313,-0.15848479238779212,-0.2842777006942071,-0.0682821513243785,0.9086314478831726,2.0472943633579077,-0.20810869792290826,-0.1469278475864586,1.8725291832363409,-2.2194122929103868,-1.0818160723966022,-0.8756574849988765,2.0291014221267027,0.29634635076221627,0.7203639416903396,-1.4496077138461931,1.8347954862784275,-1.4095583808401146,-1.8385026048446733,0.4958893827212203,-1.458178212849521,1.2297792416155895,1.8563572498737337,2.18022286582516,-3.2161616781499243,1.0966378479915309,0.9444008453215971,-0.9747770955384205
-2.2183806896209717,-0.9675057530403137,0.6047647595405579,1.929671287536621,-0.8236413598060608,0.31202855706214905,-0.7850742936134338,0.7400888800621033,-0.4363400936126709,-1.3852224349975586,-0.054951928555965424,-0.7588391304016113,-0.6633574366569519,-0.2313920557498932,0.31314998865127563,0.4105880856513977,0.9631778597831726,1.2147843837738037,-1.3010817766189575,1.5970005989074707,-0.7367238998413086,0.70591801404953,-1.0316388607025146,1.0913469791412354,0.49556952714920044,1.3264803886413574,0.8411500453948975,0.09240888059139252,1.0899407863616943,2.0696232318878174,0.958187997341156,-0.49290165305137634,-0.8200196027755737,-0.9858043193817139,-1.6052814722061157,1.4879425764083862,0.9081568121910095,-2.4240033626556396,0.33412599563598633,0.47521957755088806
0.4595685943416175,1.0376243204188687,1.6685237051429724,0.2087334819629556,-0.010491012050618753,-0.8181915594742101,-2.496733858678625,-0.27462345485095296,-0.5762325765995668,-1.1344988602689001,-1.617537514785722,0.4241183797058423,-0.6573909118135584,2.1863964853985616,-1.166647206004505,-0.536597242001106,-0.28386851919503386,-1.1854595336882694,-0.9733479600582272,1.632088168627475,-0.8490458587560243,-1.461320629653327,1.3649391865606173,-0.38007790952504006,1.610742461088297,1.9747186537314398,-1.3289102848435594,0.21518324786698062,0.24290597561872496,-0.4971085763668237,-0.5943898078504232,0.5710128894117219,-0.0695284195277936,1.1698552909715652,0.695971244885669,1.3729943535184967,0.1797492771164313,-0.0854681899168558,0.09151423938494568,1.4635152085996312
-2.080322265625,-0.03813007473945618,-0.6655145883560181,-0.20568007230758667,0.705880343914032,-2.612790822982788,-0.0252935029566288,-0.17826619744300842,-0.06463752686977386,-1.2049556970596313,-3.8808984756469727,0.9744703769683838,0.41516003012657166,1.7519673109054565,0.48501116037368774,-0.17089371383190155,0.7488700747489929,0.6297932863235474,0.8110530376434326,2.1337761878967285,0.23845918476581573,1.7988733053207397,-1.6046481132507324,0.11871485412120819,0.7622380256652832,1.8364307880401611,-0.5589744448661804,-0.18332095444202423,-0.9890504479408264,0.7750320434570312,-0.5933284759521484,1.2086187601089478,-1.5886390209197998,-1.2366596460342407,1.2738040685653687,0.061640527099370956,0.3880532681941986,-1.8607711791992188,-0.7817084193229675,-0.36873695254325867
1.1376768350601196,-0.11732105910778046,0.774945080280304,0.18110670149326324,-0.9161102771759033,0.39508306980133057,-0.1824915111064911,-0.7903082966804504,1.231065034866333,-0.2757459580898285,0.06855236738920212,0.9110619425773621,0.2067040503025055,-0.6964936256408691,-1.954489827156067,-0.36338022351264954,-0.9783263206481934,0.8773320913314819,-0.41238996386528015,-2.1315219402313232,1.4036880731582642,-1.4794247150421143,-0.5441423654556274,-0.39188653230667114,-0.26875871419906616,1.0343995094299316,-0.7163139581680298,0.3738614618778229,-1.325217843055725,1.2768325805664062,1.0410667657852173,0.11944372206926346,-0.04510863125324249,0.33872872591018677,-0.21420840919017792,-0.7246823310852051,0.031682051718235016,0.6768146753311157,0.4483061730861664,0.35422736406326294
1.835408572612521,-0.5587246025884918,-0.8545379287907893,-0.9074846982739175,0.2583500314463495,1.3347032652109552,-0.7302973773178023,-0.05040810205805837,0.33431135019480707,-0.8782139535821007,-1.324866875002623,-0.9870904016218968,-1.1177764374416754,1.092002507051475,-1.4422817591226706,-0.8717530481733924,-0.8874851525962979,0.3162948046828785,-0.8240867253913697,-1.8813096035024226,1.0929117526229482,-0.5799521081762592,0.2724092484077608,0.31730185850788734,1.4172937303526472,0.8310578475396886,-1.1380284952865813,0.4699667504054159,0.16168030712164574,-0.407608317454335,0.13918757458508035,-0.20006591831348183,-1.4133056537158613,1.135575195779705,0.823545971115625,-0.9461027452929619,1.0310646120405584,1.7426263954913435,-0.9640161342107912,0.38574430387368847
-0.14848609683917574,1.0283719647708458,-0.10440239662121371,0.6279653996012825,-0.7898184022267896,0.31065997397267653,-1.340162417308515,-1.5192389665872041,-0.18062379648558366,1.7117874638798025,-0.04952072358882326,1.1371170932134211,-0.17224622813486415,0.38145404938812183,0.6081326746055983,0.026134673838966956,-2.3462569354838654,0.27297359495394286,-1.7138369928282144,2.333131632416806,0.6072560256134063,0.044505567739498236,0.36008954645017566,0.9400331214739306,0.8599152352092431,0.7227022959473647,-0.15589910851125727,-0.3026380419400566,-0.16836774359106244,-0.17938160125485014,-1.3237019418891924,0.5116592214709492,0.7353692008651579,0.9578053981911356,1.0522906079891683,-0.9009647188083311,-1.0055121348351537,0.377826160243122,-0.1659570238526451,-0.4321453548441762
0.9996261542281522,2.4326067283724364,0.38456378304330224,-1.3209685327495233,-0.051745483977567286,-1.0692461906249944,-2.927172907277722,1.538415480485475,-0.7191023174839869,-0.37599335201648354,0.5258712711545073,1.2096701634216647,-2.8003420011316287,2.0032213297376456,-0.9041680089597638,-1.3241653566674063,0.2834031991458398,0.3887351936616539,1.225535695286234,0.6898180177963074,-0.24844852543699014,-1.8940425406578743,1.6423647372060886,-0.90579303934554,0.9555639087825849,-0.17234817390399182,-2.915225858397469,-1.312347800741497,-0.43537511009622354,-1.1448836325039098,-0.3560233980467402,-0.176090991123241,0.33465110882214366,-0.12671842347173023,0.4018064833202544,1.1445031186013388,-2.0170913676223248,2.0542136691505997,1.5736562685904016,-0.07223666732853262
0.2875608205795288,-1.1715410947799683,-1.1604663133621216,0.2368776947259903,-0.7556787729263306,-0.6284637451171875,0.6087789535522461,-1.6700835227966309,1.4561392068862915,0.4052314758300781,1.732113242149353,-0.9360097646713257,-0.3837072253227234,0.8289514183998108,-0.7663148641586304,2.03570294380188,0.044471923261880875,-0.6528550386428833,-0.6798045039176941,-0.8728734254837036,-0.6495941281318665,-1.0798429250717163,-0.10692426562309265,0.5859864354133606,2.2171385288238525,0.8986445069313049,2.550784111022949,0.1648576259613037,0.19494569301605225,-0.8038880228996277,-0.36475443840026855,0.15514467656612396,-0.24785715341567993,-0.617684006690979,0.7111634612083435,0.15026326477527618,-0.2408270239830017,-0.8589872717857361,0.7650424838066101,0.6721743941307068
0.15599898717662425,0.18908593483245606,-2.0714353864639032,-1.1269713767077687,0.4298385854347718,1.2642060791886518,0.1828340458369726,0.5948493618359161,-0.9914441218691428,-0.15435416707767735,0.2905070885743301,0.5407015183970028,0.8274057734928747,0.7540050823589063,-0.4349651529880481,-0.3338386853321569,0.08132787628152832,0.7417302723869037,0.7695443198180565,2.269003388752687,-0.1813601597521438,-0.4378614435576301,-0.7395586033743627,0.37141714329636993,0.9590868925538585,1.3969589891248497,-0.8454544228852092,1.395714805162422,1.3596929753879867,-0.23878953208349096,-1.2707785400386213,2.588256582956859,-1.1304706110955385,0.7299584506378973,0.1485543505431442,0.9680594506072957,-1.1106678574986837,1.072566126891397,-0.23773614026626427,-1.428562435761276
-0.4350088834762573,-0.5722935795783997,-0.34776318073272705,-0.6469566226005554,-1.0601286888122559,0.40119805932044983,-0.8035337328910828,-0.3246488571166992,0.7006002068519592,0.765489935874939,-0.50777268409729,-0.024494856595993042,0.7607472538948059,1.3812406063079834,0.38453909754753113,-1.0743454694747925,0.30015525221824646,0.5132615566253662,-0.542382001876831,0.07862407714128494,-0.48499995470046997,-0.08645566552877426,1.3157098293304443,0.20812788605690002,-1.4018508195877075,-0.8244687914848328,0.2004171460866928,-0.1284167766571045,0.4484275281429291,1.2112079858779907,0.5934361815452576,0.6472145318984985,-1.0819792747497559,-0.04551912844181061,0.3113155663013458,-0.854228138923645,-2.569458246231079,0.14474153518676758,-0.2961352467536926,-0.3291679322719574
1.1085491180419922,0.322386234998703,-1.9559767246246338,0.3712835907936096,-0.7037774324417114,0.5566218495368958,1.9570035934448242,0.841029703617096,0.562552273273468,0.44231706857681274,-0.2650718688964844,1.2222522497177124,0.16650216281414032,-1.2434289455413818,0.34857940673828125,0.63257896900177,2.0133817195892334,0.7814629077911377,2.1471517086029053,-0.9083505272865295,-1.187041163444519,1.6170815229415894,-0.04268129914999008,0.36798369884490967,1.8091850280761719,1.0200684070587158,1.5897210836410522,1.23811674118042,-0.9765244126319885,-0.8877503871917725,-0.5773263573646545,0.8029552698135376,0.7604877948760986,-1.5856571197509766,-1.691414475440979,1.0547369718551636,-0.5019931197166443,-0.2946874499320984,-0.5013875365257263,-0.6320032477378845
0.4897364193771032,1.8279133988627267,-0.48038864617717414,-5.283823178666527,0.6048632778708976,-0.20278107669241718,-3.115820586828919,0.9073617423786076,0.08012261785650687,-1.4299677531494623,-2.1202088019010725,-1.3557267164393512,-2.37729858910018,3.400017807984545,-0.4365338780501239,0.31798023956084437,-0.7086508094617712,0.46085100292960723,0.29752044958321444,1.7943242962753145,-0.6344453658661713,-1.6936594700697996,-0.07161139735302668,0.11438835690533145,2.9459179972909015,2.3030285501038836,-1.5521620151885909,-3.1839593611684855,0.5861693662517671,-1.353415594136095,-1.6948416684035594,-0.8962954113039943,1.6336480800122366,-2.149877685279809,-0.6269457792487514,2.9913511603510727,-2.5737839938579823,0.4666467537968585,1.8684290736131453,0.11409798271990623
1.2500670793431887,-0.16785269844439793,0.4968499796406935,-0.4377990577024342,-1.759761094979663,-0.8703745106285493,-1.0608937840863715,-0.891964650014317,-1.9631919078126976,-0.7018341361359219,-0.38727725504567095,1.0327330015179903,-1.394915302855562,1.88237657123289,-0.935919771066215,0.6464833591716083,1.0762915895197833,1.155501780413036,0.13201992848354674,1.5795893965122212,-0.5806763999586391,-1.2062302435279286,-0.5566234572004758,-0.3603814333002143,-0.06322835143361782,0.12053643165871042,-0.8136057267873953,-0.12929835335915996,0.21498018706611288,-0.35676488902181624,-1.182715653669658,-0.6570884000738759,0.7211146992220168,2.33248194856877,1.6637038301032336,0.1253151647186197,-1.7549566585885388,1.3591540971331824,-1.1614318482452042,-0.5937034532752352
1.1553921699523926,-1.4819176197052002,0.8206045031547546,0.07305128127336502,0.3134309947490692,1.8189287185668945,-1.2539669275283813,1.558384656906128,0.9608919024467468,-0.9356909990310669,-0.17870782315731049,-0.26876693964004517,0.30202457308769226,0.6158062815666199,-1.3008904457092285,0.01810423471033573,0.1642879694700241,1.333050012588501,2.6039183139801025,0.39701342582702637,-0.4776695668697357,-0.10341373831033707,0.2300214320421219,-0.8677089214324951,-0.1244836077094078,-0.7612431049346924,0.32442283630371094,0.34049341082572937,-1.1394985914230347,-0.3623528778553009,-0.6125780940055847,-0.06048768386244774,1.0926377773284912,-2.0460927486419678,0.4190310835838318,1.099685549736023,0.21865743398666382,-0.8482329845428467,-1.6566128730773926,-1.0246100425720215
1.3352264165878296,0.8506576418876648,1.2950276136398315,0.050297897309064865,0.3495468199253082,0.08727457374334335,0.8187097907066345,-0.47487616539001465,-0.5687562227249146,0.05862641707062721,-0.4891074001789093,-0.3568727374076843,-0.43707096576690674,-0.24353435635566711,-0.0937780812382698,-0.6159828305244446,0.41464942693710327,0.20209573209285736,-0.29756054282188416,0.6816605925559998,0.5383108258247375,-0.6140509843826294,0.76905757188797,2.063241720199585,1.5247187614440918,0.38953396677970886,-1.4419409036636353,0.8456721305847168,-0.4453127682209015,-1.492266058921814,0.21178478002548218,-0.3671833872795105,-0.9740515947341919,-1.3418687582015991,-1.5496323108673096,0.3135351240634918,-0.40355485677719116,-1.074180006980896,-0.0014120335690677166,1.0977133512496948
0.8723318576812744,-1.7551804780960083,0.7954850792884827,-2.00753116607666,1.1861337423324585,0.6285610198974609,-0.05784231051802635,1.8559017181396484,0.028483586385846138,-0.18143373727798462,0.6123991012573242,-0.7633242607116699,-0.3549615144729614,-0.26177582144737244,0.8121258020401001,0.4826153516769409,-0.8865119218826294,-0.03775697946548462,-0.5629532337188721,0.8977057337760925,0.383232057094574,-1.3248063325881958,1.139269232749939,-0.05548062175512314,0.5337849259376526,0.49073341488838196,0.9728233218193054,0.8069092035293579,0.3175458312034607,0.05147840455174446,-0.9721168875694275,0.15983611345291138,0.7658613920211792,-1.733863353729248,-0.2994934916496277,1.908760666847229,-1.2121211290359497,-0.1222815290093422,0.22606156766414642,0.42485207319259644
-1.250799858426192,0.4143460290296107,0.6174758922837496,1.278007961753245,-1.7960118466277135,-0.4263045426382596,-1.2240677388205894,0.20966187151844445,0.012589079379789453,1.2347812985429654,0.3621683612377664,-0.9898044936737833,-0.4727714577957297,1.0086155111048827,2.3389648760775716,0.2960451612564094,-0.6110633858908433,0.5710325017774949,0.8287166675995764,-0.2135193109674639,0.11707856760762725,0.23595877195578682,-0.17762052816412732,-1.8552545030045828,0.9309513895003521,0.28538465951200065,-1.8379390734773073,0.23955762703174405,-1.9234639278366492,-0.415016273035375,-0.42741879209717965,1.052806546400629,0.008108093261344637,-0.8316764861414293,0.06568665260768217,0.5744795539510109,0.23245948039016542,-0.5390362065790597,-0.36572413641601437,-0.6380385482841854
0.08531473050387084,1.662011754802044,-1.451712888028386,-2.833780924571469,2.174545246814958,-0.01100753855753199,-1.1059756813996846,2.3643184321595125,0.02833388350493643,-2.3531735240455234,-0.17953237536757505,0.6105947901880596,-0.5814517497281839,0.26087207464372764,-0.979571904063112,1.20727988291247,0.42787355219119005,-0.2933212261453898,0.15639177045281533,2.5636057650272024,-1.1372623482766877,0.031356607685048665,0.7133124359493438,-2.7761346237981988,2.8527244909655156,1.7113778245220281,-1.5559028180814698,-2.0534663165560163,-0.4211409478490042,1.9566526491536718,-1.2716541428382058,0.695316573860726,2.2366104484770197,1.6015863361507645,0.2741285729355334,1.2514833655133137,-1.0884194471534518,0.7246394305905814,-0.058868792531757586,-2.597531120590688
-0.4874963164329529,-2.302743434906006,0.934849202632904,1.3671661615371704,-1.1805752515792847,-0.29091280698776245,-1.9392869472503662,0.6287055015563965,-0.2225523293018341,0.22310753166675568,0.0516485720872879,0.499167263507843,-0.8112480044364929,-0.3993460536003113,0.5149778723716736,-0.0869210734963417,0.5601566433906555,-0.15357699990272522,0.22758862376213074,1.3023045063018799,-0.14311307668685913,0.6146497130393982,-0.04208557307720184,0.7891374230384827,-1.8173630237579346,-0.5810577273368835,0.36980459094047546,-0.4339132010936737,1.2070467472076416,1.45671546459198,-1.5426864624023438,0.7780648469924927,1.005863070487976,0.5131523013114929,0.7741161584854126,1.3002891540527344,0.9135602712631226,0.4568163752555847,1.1523888111114502,0.7415003776550293
2.1620583534240723,0.517910361289978,1.7897669076919556,0.37503954768180847,-0.07596933841705322,-0.6780031323432922,0.6005414128303528,0.49347731471061707,0.3938539922237396,-0.9064090847969055,0.31915074586868286,-0.4991438686847687,-0.6603992581367493,0.07746969908475876,0.38755181431770325,0.976352870464325,-0.8412989377975464,-0.1459355652332306,0.8548229336738586,-0.285540908575058,0.05384247004985809,-0.6035822629928589,-1.1603752374649048,-0.8120976090431213,-1.1958494186401367,0.562516450881958,-0.23686738312244415,-0.21967369318008423,-1.6233221292495728,-0.6343960762023926,0.34087663888931274,2.8336827754974365,-0.07627037167549133,-0.9982455968856812,-0.4349018633365631,-0.8293012976646423,0.8410791158676147,0.2700507342815399,1.6127058267593384,0.5681962966918945
2.810121341730896,0.5506698933245437,1.7791707974641129,-2.32448991326148,0.8261719305020245,-0.751269462512053,-0.746448866581578,-0.033138411101877874,-0.7001089872456627,-2.009079183995836,-0.3411978065941612,0.723628210701171,-1.6789609198099174,0.4965324506599633,-2.195907862680857,-0.915406362280063,-0.9072046671766201,1.349477081512702,-0.5316750014750506,1.0688278002589753,0.8869640707080053,-2.956909090983921,-1.0456176213941206,-0.8921284636121364,-1.570215219104541,0.7220286759769374,-1.1935960908255798,-0.4547504067162338,1.8011401679900592,-0.7278712992969972,-0.8362118955262547,0.43884893955963067,1.304555797106688,2.368147374558514,1.5053218622356468,1.8331726024718926,0.5707593505969445,-0.43483083659266997,-0.8076349830439018,-0.4245444748512935
0.329976130359999,1.8335793392398627,-1.08541106888398,-2.991948503530891,0.761364996721424,1.307220363638952,-0.8247231647973337,-0.18461213701646395,1.0065357801815935,0.6545535595554339,0.5959284633139689,2.6312525691576596,-0.3669281839837666,-0.052037920385454184,-0.8793200373478498,-1.0750727528433237,-2.703917584563928,-0.09155241744437723,1.3404869173988299,1.5790746447244408,-0.9026318728319936,0.5350175748625823,1.0799200727351206,-0.7222185507770503,2.8687116039980474,0.009095739699248151,-1.7462211459624783,-1.2591890101800374,0.9330843900190865,-0.9245758770815519,0.4935393357289273,0.9236494762331152,-0.7342581722484655,-0.29963154486106214,0.23738397184152787,0.17701640439788635,-2.61576713119005,-0.9438999322088146,-0.34642423225175145,-0.1691365702283441
-1.0610830783843994,0.8178403973579407,1.550795316696167,1.2257683277130127,1.5225412845611572,0.13748718798160553,0.44847792387008667,0.9521698951721191,-1.1150691509246826,0.6514121294021606,-0.19210204482078552,0.33762261271476746,0.04754370078444481,1.4715787172317505,0.4769306778907776,2.010209083557129,0.13582435250282288,-0.8281314969062805,-0.9753462076187134,1.2497014999389648,0.9775511026382446,-0.5558203458786011,-0.16735389828681946,1.81064772605896,0.7462345957756042,1.47763991355896,-1.4366501569747925,0.9548720717430115,2.116853952407837,0.3686004877090454,0.43166977167129517,0.882142961025238,-0.026213018223643303,-1.9418801069259644,-1.1068249940872192,-0.6678352355957031,0.21071168780326843,-0.5301947593688965,-0.295190691947937,-0.17272168397903442
0.6786946498795736,1.9383719542374789,0.9614223355805307,0.3775541526758966,0.9521554171909592,1.5399644099640446,0.3107529645117212,-0.7574222252992119,-1.3350337469537576,1.4164424856728923,0.5509545429638704,1.4175272831598125,0.0923262681482456,0.6456494326917752,1.159053908753792,-1.2700726684706563,1.1599720263401767,1.2256425482774314,-0.009934189079631624,0.6179570424638952,0.5409025906490282,0.07634622983226727,1.5679803850590988,1.232625433227016,0.8847261851796688,-0.5196584944523697,-1.102003523619154,0.7013346794728401,0.3160545905096791,1.0113683547048813,-0.1724884547688366,-0.78357601254972,-0.2582915545732558,-0.13394680100516074,0.8581181951740106,0.4936494757012481,1.0885137850432385,1.3164675838331164,1.8379969978407862,0.4063855633509275
-0.9712555872233742,-1.6711859232180002,-2.247715868498478,-0.5487940257656251,-2.3298182492094783,0.12709505027949786,1.3953397724402536,-0.2138926689439029,-1.4942670055077403,0.3618937875532768,-0.8289641308427071,0.42438693349895557,-0.5614713189618725,-0.9994631836371288,-1.0253595198969485,-0.18637054597783403,-0.38730365221972124,0.2705319983801666,-0.1396729735683614,0.9749647667929747,-0.5562372383196985,-0.18124074525742895,-0.09972471067448718,-1.1776295851133596,-1.247551908122658,0.37752298240616244,-0.19630462125423742,-1.4409277367883184,0.1743135442294759,0.6830460367332141,0.11433916794431019,-1.479462572604368,-1.6947422200325122,2.0945125400582048,0.8008730680809086,2.3268118872658334,-1.043204965503834,0.47888855012614867,-0.6202227406210059,0.5592450594298967
0.24198754131793976,-0.14092373847961426,-0.6532545685768127,1.7358555793762207,0.49322259426116943,0.6997607350349426,-0.49021482467651367,0.29628118872642517,0.5747737884521484,-0.5051596760749817,0.7025482654571533,-0.554584801197052,0.7283354997634888,-1.2438580989837646,-1.1078218221664429,-0.42669814825057983,-2.7556509971618652,-1.1483471393585205,-1.2346769571304321,-0.5894496440887451,-1.3132483959197998,-0.49471360445022583,0.6699894666671753,-0.13809362053871155,0.05820583552122116,-0.7804976105690002,0.3375416100025177,-0.1669197380542755,0.1057656928896904,0.04448641464114189,-0.3689459264278412,-0.07395141571760178,-0.7996692657470703,0.12468694150447845,-1.2897276878356934,1.2923327684402466,-1.2921472787857056,1.3225675821304321,1.593848705291748,-2.597719669342041
-2.1684343814849854,-0.5623695850372314,0.6737508177757263,1.2238465547561646,-1.052629828453064,0.985048770904541,-0.9179953932762146,-1.016455054283142,0.3527142107486725,-1.6089200973510742,2.0116469860076904,-0.9637125730514526,-0.17408302426338196,-0.2993461489677429,0.44920608401298523,-0.38596871495246887,0.35722365975379944,0.6099831461906433,0.824893057346344,0.10157807916402817,0.41808781027793884,-0.7743000388145447,-1.8698660135269165,0.8127369284629822,0.6477668285369873,0.49868854880332947,1.1371333599090576,-0.01683983765542507,0.5882312059402466,0.12458360940217972,-0.09440133720636368,0.9533798694610596,0.8377394080162048,2.563992500305176,-1.3079079389572144,0.781865656375885,-0.6441110968589783,-0.9245584607124329,-0.05843384191393852,-1.2393608093261719
-1.0632268190383911,1.7883237600326538,1.3764920234680176,1.7866910696029663,0.07955625653266907,1.1930139064788818,0.07849297672510147,1.370478868484497,-0.700814425945282,-0.8723843097686768,0.4876890480518341,0.5845344066619873,-1.7538729906082153,0.6456511616706848,1.5517758131027222,-1.22476327419281,-1.2212693691253662,0.6033328771591187,0.15979696810245514,0.9737764000892639,-0.9570865035057068,-1.3940825462341309,-0.9705525040626526,-0.9483729004859924,-0.49604153633117676,0.4152241349220276,-0.03176364302635193,-0.5899930000305176,0.6803200840950012,-0.3715704381465912,-1.346570372581482,-0.9966098070144653,0.8358544111251831,-1.2033467292785645,0.4663948714733124,-1.0904006958007812,-1.0219626426696777,0.5716282725334167,1.0524810552597046,1.7847322225570679
1.637050619768394,-0.9985454676326877,-0.5953001702047187,-2.2347623159902232,1.400934648666034,-0.8594382967619213,-0.9246923510812335,-0.042168129635408114,-0.3229715482470186,-2.1491915253511458,0.8569819980159635,1.4864413142945576,-2.9781932678648944,2.535152099064872,0.6768458053746631,1.2076662144223669,-0.1980759243042903,0.10388730919201027,-0.9632986010155276,1.7996424295272833,0.14549508499261543,-0.9927463263665433,0.18993992524853434,0.34828259093050074,3.0934047393251483,1.352093653599755,-1.2601001368753157,-2.411412744529887,-0.3722272002290414,0.1307769337950735,-0.18344350125995812,-0.9192391829144293,1.33193837069776,-1.106286014251448,0.9546640809203061,0.8520627887702923,-2.45543202064902,-0.09925915660935358,-0.5818926386936171,-1.3691711462085574
1.1966609649614537,0.4789057569332773,-0.3731180867643745,-0.878020675269509,0.9925182359734616,0.02288441534374331,-0.5411920061809161,-0.7577362542054503,-0.07582516219251617,-0.9817076003959276,-1.2488487558379888,1.240964730200527,-0.5311300942978108,0.19490803533282497,-0.27525342365835426,0.211251718003979,-1.5947080367796134,-0.11474018437627186,1.8362737967838179,1.876440468244494,-0.10805218625339696,-0.9292102580377327,1.4813123259371226,-0.376001597127096,0.15290170632311784,0.4582518097752596,-0.3957961028689272,-0.9414229665099928,1.3218629136975093,-0.3819078200549767,0.4794318861222129,-1.1920609720151516,-0.8317778224556025,0.4599344172654128,0.016790805101729256,0.8987853255563716,-0.8930260798246001,0.8254535900405863,-1.0817238664521762,1.0744936907934868
-2.15270733833313,0.2612399458885193,0.8199378848075867,-0.3127764165401459,0.28108081221580505,-0.4288254976272583,-0.19151711463928223,-0.6985726952552795,0.286192387342453,0.5763772130012512,0.2108532190322876,-2.0267956256866455,-1.3711998462677002,0.939968466758728,0.49043676257133484,0.5697442293167114,-0.36140376329421997,1.8085901737213135,0.32837602496147156,-0.49247685074806213,-0.6904024481773376,0.2971374988555908,1.037718653678894,0.026601770892739296,0.4482361972332001,1.0249178409576416,-0.4695553481578827,-0.3233715295791626,-0.08664272725582123,-0.8624280691146851,1.1559861898422241,-0.5836440324783325,-1.4164605140686035,0.7991957664489746,-2.063856363296509,-0.457673043012619,0.3157953917980194,-0.013959324918687344,-0.37606874108314514,-0.7153562307357788
2.0350234768157023,-0.7848623343429199,0.8703486667956124,-1.5666353344079056,0.337301213253127,-0.43907520904011865,-2.5337800038847718,0.8079014372046137,-0.22901155083576186,-1.5228546413845738,-0.05845024924174247,2.782626617145458,-1.458086262131375,0.14702574512548827,-1.175241285876007,1.621460129694554,0.7936351932571426,0.7083560661857767,-0.9320826972858839,0.8419490468421733,-1.6212015007041511,-0.4260745560499445,0.1977855026357262,0.520248828804453,-0.3329065057005731,2.0440427989337326,-1.3214872861377944,-1.602732014128681,-0.5787911694892296,-1.7483756980671805,-1.7957887098470517,0.7292266449313594,0.5548460471324697,0.3672900942201186,0.9522905147149039,1.6511979925916533,-0.6100113183834457,-1.4075945003861152,0.3402086166439131,0.4338603409861257
0.1383770853281021,1.5378528833389282,-0.1877201944589615,1.1950938701629639,0.0749160572886467,2.3572654724121094,-0.0764036625623703,0.3226656913757324,-0.23362614214420319,-0.6341142654418945,-0.33554890751838684,-0.3631829023361206,-1.2611145973205566,-1.5625121593475342,-0.21865971386432648,-1.1231343746185303,-0.22873932123184204,-1.0365450382232666,-2.1915388107299805,-0.6731612682342529,-0.15080362558364868,-1.2011961936950684,0.08355101197957993,1.8192168474197388,-0.5562584400177002,-1.0137511491775513,0.8049579858779907,1.1388487815856934,-0.9132117629051208,2.0474932193756104,-0.8947829604148865,1.0591027736663818,-0.605856716632843,-1.0968323945999146,0.21764259040355682,2.122046709060669,1.1214905977249146,-1.1011663675308228,-1.272571086883545,0.8434589505195618
0.8739661574363708,-1.1622549295425415,0.12618578970432281,0.5057848691940308,0.6695152521133423,0.48339778184890747,-0.43835657835006714,-0.13952146470546722,1.6678766012191772,0.9063562154769897,0.8603041172027588,-0.009413709864020348,-0.8075485229492188,-0.784812867641449,-1.3155155181884766,0.6875244975090027,-0.1572352647781372,0.3033997714519501,-0.3634068965911865,-0.5526511669158936,0.4144209623336792,0.17517103254795074,-0.52951580286026,-0.06745694577693939,1.0588147640228271,-0.11789792776107788,-1.8534207344055176,-0.7018494606018066,0.26239633560180664,-1.7245960235595703,0.2765803635120392,1.0730241537094116,0.6352851390838623,-2.1785483360290527,0.3120437562465668,1.572378396987915,2.002793312072754,0.00931011512875557,-1.1284197568893433,-1.2591311931610107
-0.259184388688169,1.7807030073998902,0.04971484085950943,0.8882423338153487,0.2484072239078507,-0.5263025660068775,-1.1478028951369537,0.40264040057504746,-0.15364853124617894,-0.5584769015845781,0.6057413432150406,2.043353246190075,1.529973642995854,2.142336829480128,0.6000577328376738,0.5314694763295005,1.719027730352405,-1.3920415288289898,0.6131272692292229,0.7961194127639847,-1.5261331889788736,-1.7211592282655304,1.2118537969983,-0.8586529135771602,2.286520432342757,-1.7264818158797404,1.1329611647166309,-1.136436149567382,1.9846787860811808,0.30037437568674735,1.4543001011024717,-0.39334250820974237,1.6441534628708885,-1.741224853928513,2.149430734851361,-0.4920769741456964,-0.7853716289176579,0.10816107963185494,-0.697347260660605,0.5963996990436354
-0.18824158692532872,1.3074163758895034,0.5969539954180362,-2.6816133361894696,0.7944673716291297,0.09784005603870928,-1.9654494009450845,-0.39621299155967954,0.5002711715687511,-1.749694892441828,-1.6656093313080729,0.6474307060809384,-2.6975907415719806,0.16395908199940679,-0.11820680273464357,0.6169668365752934,-1.249727310839226,0.1322481993438514,2.657561266025887,2.9335466431136945,-0.9841531801195078,-1.3246929437606147,-0.7449520094617759,0.2139563183746469,2.566133028218931,-0.608965844731663,-0.14527341864600185,-0.8157460225483602,-0.6119187840231548,0.35280468747889393,-1.1505710854289275,1.1789679304513516,-1.1860869960975977,2.128110917610206,1.5934132118944193,2.1602562066217663,-1.3948891352342632,-0.2832533333544622,-1.239045166407431,-0.20752056527170004
-0.14987468542631543,1.319465108686053,0.5637441170924541,-1.693978723651807,0.30508528504735377,-0.4602585359465779,-1.2131882984205524,-1.3958668573707422,1.2260411783225296,-0.048096117182938256,-0.008494072193674346,0.3169607254010834,-0.07807440014822817,-2.1288986126017777,-0.7207222369615262,1.2750952850223787,0.7661547665718516,1.1386441825786644,-0.3345300361203401,-1.3446827978684883,0.8483101098457849,-0.6096419565582009,-1.3757259658246772,0.6004606221398483,1.357393059610241,0.39794059814939836,-0.9431803153745828,-1.0356329290385329,0.31894823470406275,-0.4779166198277064,0.6784559497622434,-0.06792429278265744,-0.04292832408633188,2.0997726737821534,-0.05338092341664558,-1.020061284117124,1.1146874631751347,0.8923507077422437,-1.78173676399996,0.37984923240814145
0.04699542046693522,2.226758752055316,0.1749725598151291,-1.8074374993295397,0.15011612704922483,0.04570373215975462,-1.533194403517284,-0.7285052026220726,-1.1290835148069303,-0.9661711879528838,0.6069569118196809,0.06857709552626778,-0.6114404532784368,0.2474115526801305,-0.42279525932782336,1.6180755729231715,0.2505620034259737,1.2756059728704026,-0.6698641220471921,1.5789368192991309,-0.5222781312966882,-2.875083528681623,-1.5542996687930766,0.6219142851789851,3.091612366211344,2.6838643171601646,-1.401798762618508,-1.9741166127717948,-1.9823979273775605,-2.347925768669561,-1.245975455782497,-0.92257870294024,0.777251608382598,1.2109995517663594,0.748385685357786,1.328927724667902,-1.2670638936176406,-0.45441670066063533,0.5890619549088075,-0.9699968995032615
0.7325689217192746,-0.036863378496933774,-0.2743294750897774,0.6951169492351205,0.9993826932426109,-1.0209256039352501,-0.02994761565185461,0.5058987822794981,0.25891700405725443,-0.3972885824775785,1.2205630661229148,1.908882262209445,-2.4389803383549067,-1.481084147341802,-1.8820507700219011,0.6408548502246465,-0.6096685362492937,0.8742950502195794,-0.9786846499837322,-1.339860249176694,1.1989464922324065,-1.513116047879615,-0.19397020117320019,1.481736600581728,0.6081885859611724,1.5945668525151409,-1.448858570361303,0.07479546604909948,0.19449937366935205,0.03818111912947564,-0.023686226406943733,-0.35397910141390315,-0.9198572958569841,0.5279921048821398,2.020289722061055,-0.42622498037575235,-3.577560211508717,0.22365130728301622,-0.1006596279119371,-0.14617616650348444
0.05316814035177231,0.6441975235939026,-1.0124107599258423,2.3711812496185303,1.4405022859573364,-1.0925872325897217,-0.9961408376693726,0.8678263425827026,-0.2507334351539612,0.7689903378486633,-0.6382982134819031,-0.19295592606067657,0.33891528844833374,-2.66695237159729,-0.382754385471344,0.8522652387619019,-0.22679340839385986,-1.7389200925827026,0.0560615248978138,-1.8172986507415771,-0.15231013298034668,0.7240716814994812,1.1753610372543335,0.0811196118593216,0.5461461544036865,0.30288809537887573,0.28112518787384033,0.5551943778991699,1.2879129648208618,1.4104845523834229,-1.0975618362426758,0.7068628668785095,1.51756751537323,0.27342933416366577,-0.655666708946228,-0.27213484048843384,0.36422258615493774,-0.9237400889396667,1.5383104085922241,0.5521779656410217
0.9503643964671713,1.1759525001114368,0.45038451316260975,-1.1048644342196576,2.004264527593473,-1.9013362569935899,-3.4618220358137304,-0.2607702887803293,0.9131702104692946,-0.8141285248632354,-0.5972272628734638,1.218107324187176,0.14116221337277246,0.23923846281193162,-0.8664018043704373,0.8423959610156615,-0.9851362438206756,-0.17752949727209466,0.808291972004107,0.735371760827872,-0.9934313268278712,0.45989316768544697,-0.4558290752068569,-0.8225834334294062,1.541638364551649,2.6718408454692275,-0.9321399919960998,-0.9547333498289308,-1.1802407572934228,0.007798355904018006,-0.4333198607071269,0.6571978220585593,0.24297009937505198,0.2779006416342032,1.1113603341494158,-0.9891416154162628,-1.745346055495857,-1.5753756419328138,-1.3727457371399654,0.17497156365525565
-1.269380852787794,-1.8782183361194873,-0.31769389151480476,1.4547123144558864,-1.066992554338473,-0.31544519985921704,-1.9025124928497745,-1.9118198102702129,1.4554143989978103,-1.0140024951268993,0.17021766013765338,1.0846095800382185,0.6673556714385838,3.0729813315846695,0.16196952639646833,1.5907664234953556,-2.232876658787296,0.6946733213346914,-1.6536802256121543,0.1332309442441818,-0.5735213302454965,-0.4171766724394873,0.5896772428109833,-2.011544179360802,0.454795036900575,0.14793469363528589,0.656735351503934,-0.42900695176773507,1.8636946107338543,-1.2239903950016093,-1.1090981758761616,-0.30160878320207085,-0.10019415858929145,0.9483492969548415,-0.5630929146988173,0.9935496245793375,-1.2231054589491066,-0.1539405195865305,-0.33478339727043166,0.28086678661608877
-0.5942869186401367,-0.44944092631340027,0.7289580702781677,-0.747542142868042,-1.058361530303955,-1.3362932205200195,0.024043217301368713,1.3760175704956055,-1.3038182258605957,1.0809708833694458,-1.7609031200408936,0.5667757391929626,1.3280746936798096,0.36699217557907104,-0.9887233376502991,-1.2619434595108032,-0.32169169187545776,-0.3682401478290558,-0.46478262543678284,0.5677130818367004,-0.7692182660102844,0.6583961248397827,1.084815263748169,1.000004529953003,-0.1166156455874443,-2.0403847694396973,0.3847509026527405,0.4610869586467743,-0.2931923270225525,-0.8208246231079102,0.5718122720718384,-0.4771970212459564,1.2534738779067993,1.3349108695983887,0.4963357448577881,0.9930842518806458,0.0694538801908493,0.29657983779907227,1.7516611814498901,0.5797287225723267
-0.7739933135174399,0.6482614749045783,1.5065531273761796,-0.6807590437956497,0.07924290252799437,-1.849316187719571,-1.3085763366574452,-0.7622313806123149,0.03786453973156648,0.1435586121624297,0.3042739666215222,1.5255076013320017,-1.3898759907175617,0.17942191990463874,-0.8350411086692251,-1.5895097939079827,-1.458338723054981,0.41800384129084006,0.9485847847944064,-0.7283798982258766,-2.218837972632983,0.06510692442168364,1.5666606819758488,-0.47249142137930134,1.5732734897669718,0.6878608288363706,-0.05223906175343651,-1.2215578730539196,0.2834813038975113,-0.8953250222694646,-1.1300160028085389,1.809374231454747,1.1816032597700483,0.9001459482558047,0.6121460239597585,0.6914652545044935,-0.6914250035550871,1.0608202737756673,0.03515490482721817,0.4060492476302907
-2.257854700088501,0.8780280351638794,0.8739559054374695,-0.710204005241394,0.19391010701656342,0.8016319870948792,1.1124284267425537,0.06384415924549103,-0.11953400820493698,-1.2283316850662231,-0.0390363410115242,1.2055357694625854,-0.14634910225868225,-0.5488443970680237,1.7561159133911133,1.134867548942566,0.8942744731903076,0.20789436995983124,-0.4486747682094574,-0.06939966231584549,-0.8630123734474182,-0.4218527376651764,-1.5083976984024048,-1.6256569623947144,0.6914376616477966,0.03810334578156471,-0.922522246837616,1.3635882139205933,1.1554157733917236,-1.9216220378875732,1.1124351024627686,0.768056333065033,0.25283271074295044,-2.0307607650756836,-0.18061846494674683,1.2994813919067383,0.44960176944732666,-0.11375703662633896,0.20593354105949402,1.7299525737762451
-1.7683478182207255,0.5555332654761376,0.01682425148175712,0.32334604300575354,-2.069719989148529,0.12427396186931841,-1.60817319440581,1.0878590376415824,1.1772081437582453,-0.3806858106048779,-0.47146915392025335,2.4854106916357095,1.1093948571127163,-0.1702580618223284,-1.970160235764577,1.0703356173650924,0.0811714989320622,-0.5130079144584957,-1.4745641207327582,0.21603753350567467,-0.6103430098966149,0.43682540003259873,0.21415321165896145,-1.03838789592672,-1.00204871386544,-0.4589086929754036,-2.095998395927612,0.07914894605350342,-2.1144758310362266,-0.32336207561261815,-1.4728978277549079,-0.7665396530832627,-0.7058879429796611,0.9301965370745744,-1.3412706220516066,0.46418469978701443,-0.0756485457570173,-1.7547587369582907,-0.18003385933184132,-1.5531543202042388
0.21684235334396362,1.0755524635314941,-0.906125545501709,-1.3741497993469238,0.8922649025917053,0.5580561757087708,0.04346827417612076,-1.8940476179122925,-0.05275420844554901,0.23581527173519135,0.8719192147254944,-0.09988722950220108,1.4072214365005493,0.6019005179405212,-0.6506812572479248,-0.6128028035163879,-0.6996045112609863,-0.018685713410377502,0.6185253858566284,-0.38681432604789734,0.04547051712870598,0.8120003938674927,-0.35900530219078064,0.6776930689811707,-0.09564734995365143,-0.06490224599838257,-1.3294068574905396,0.026288336142897606,-0.39424729347229004,-0.6009089946746826,0.6585794687271118,-0.3676307201385498,-0.5706397891044617,0.2006644755601883,0.3524097502231598,-1.0962432622909546,-1.028272032737732,-2.583352565765381,-0.930765688419342,-0.046859096735715866
0.7009998582658126,0.05798694163433543,-1.8266625201035032,0.8184182654650071,-0.029419514940162428,1.0253182620023469,-1.7051384821543398,-0.1624995965183217,0.41026136548954245,-2.2328071782491965,-0.1660478341535534,0.8934731201163326,-1.7677624559631817,0.01913046047581607,0.09604263948887024,-0.5519233877403336,-0.5595572956184656,0.1277135594813812,-0.8419564981806075,1.0503396800035936,0.19556205343983576,0.7308932304824001,-0.3144119792366717,0.17281819626494557,-0.19583075524327276,-0.49324257614171685,-1.2711036913357674,-0.08810125670571034,-0.4846928265710143,-0.8660485870292022,-0.7609973715364815,0.17738105526873682,-0.8958831325180208,-0.5051770271559175,-0.3773580963962528,-0.5133328184970829,0.2185811676442576,-1.96855768948254,0.10134551382372045,0.09181293435321988
1.925632165394996,-0.2151358370604849,0.31698818891747693,-2.11761140577877,1.2893779055775114,-0.24072931753461735,-0.9724250857975485,0.9432020118932556,-0.6964473572421154,-0.9408094941654608,-0.08565137508193299,0.7938202776664668,-1.630832095174339,0.7245940899786283,-1.2423675360679427,-1.2408680686220404,1.4826332894857224,1.362922396039468,-0.7377651332029798,2.403415412145062,-0.09337311947693827,-1.1257022747532943,0.8906980386745961,1.3924585085175547,2.005803345384169,1.9315592503501713,-0.7386007187094541,-0.828856180052612,-1.9743465331480754,-0.8090046696709664,-0.32246411871187486,-0.7070013707075495,-0.7004133499571885,-0.06138741614623078,-0.7856389205511802,1.3031559749853514,0.4326287557127175,1.917304060843501,-0.5757576328633567,-0.6300213624597648
0.6715292051086469,-0.8838346067586406,-0.22961383468353336,-1.907643703411193,1.561659621502145,1.0396424657206964,-1.9648529326041007,2.1409501096599524,-0.004104228009746205,0.5902120343759969,0.08610903711744586,0.9837090214603763,0.7563813830993087,0.16068900495617724,0.9457325459395068,0.8666004743654466,0.45742084525368465,1.4288511295025543,-0.5782458319874956,0.18161481719566042,0.7080686474589956,-1.0565146634727864,0.2499300912765061,-0.3465246492988634,0.23047269603422837,0.16691974546816107,-1.0131080869221796,-1.5233476642725636,1.4062156679666005,-0.24865658830989518,0.14143636794111977,0.2593010660550563,-0.2707905174718278,1.209681295950221,0.10467202006810708,0.9866323244928203,-0.11662461395909701,0.526989308356949,-0.1410942353083203,0.14141661037393394
-0.20529194176197052,-1.0103338956832886,0.735149621963501,-0.9460760951042175,1.4648852348327637,-1.6688779592514038,-1.4180281162261963,-0.157013937830925,2.261312484741211,0.5192156434059143,-0.5819875001907349,0.8429206609725952,-0.2862376272678375,0.027988210320472717,0.4238086938858032,-1.0406473875045776,-0.5351903438568115,0.16357742249965668,0.549972653388977,1.317280888557434,1.1483118534088135,-1.7104346752166748,-0.09858297556638718,1.0161619186401367,-0.22803235054016113,-0.8351051211357117,-0.5040815472602844,1.9411972761154175,0.005251308903098106,1.087868571281433,0.6381269097328186,-0.8857533931732178,0.9171518683433533,-0.9119786620140076,0.0032273426186293364,1.9674283266067505,1.1031666994094849,0.04944057762622833,0.20173312723636627,1.044596791267395
0.1490161221309804,1.6925984346018275,-0.24566462738333608,-1.1798536836872304,1.4009598812847677,0.22563598948315344,-0.3544585807841898,1.9584174561427374,-0.1821820307261378,-1.1565090928422854,1.0484966561202167,1.596557731858468,-1.4932718945315897,0.9468192675313643,-0.13671286595923077,-0.062129809104345075,-1.064654661073475,-1.6128244713209188,0.7970706984582155,0.6823037410265117,1.7222942261849818,-0.28853904737822833,0.506130365123111,-0.7223385625314672,0.6303897249556074,0.21184140325941758,-1.0525049906491366,-0.5278405705324163,-1.0146084018190002,1.2599827330614168,-1.6553961709919536,0.8321051915023279,0.7510544535564252,-1.1242651077926766,0.23827701226671938,-0.12207713008395982,-1.784445519672157,1.511689479205835,-1.35851089773512,-1.0157462074024977
-0.9077107906341553,-0.6960140466690063,0.07724384218454361,-0.20487377047538757,0.7286787629127502,-0.3727247416973114,0.5030017495155334,-0.15682318806648254,-1.3968775272369385,0.17780743539333344,0.20138005912303925,1.13190758228302,-0.11921732872724533,-0.8503429293632507,-0.7149669528007507,1.330486536026001,1.218422293663025,0.4023456871509552,-0.020456824451684952,-1.4373661279678345,-0.3835222125053406,-1.8470182418823242,-0.5874465107917786,-0.04313818737864494,-0.26006174087524414,1.071488380432129,-0.08218462765216827,0.13882562518119812,0.29490548372268677,1.4026926755905151,-0.6222164034843445,-0.5224869847297668,0.17797110974788666,-1.185489296913147,-0.4047754406929016,0.23937594890594482,-0.2212064415216446,0.1324196606874466,-0.04201652854681015,-1.0612730979919434
0.07647920399904251,1.599217414855957,-0.51775723695755,-1.4006224870681763,0.5385888814926147,0.656282365322113,-0.413680762052536,-0.9695915579795837,1.2345761060714722,-0.1385897547006607,2.3703062534332275,-0.02225436083972454,1.0332016944885254,1.1476290225982666,-0.07737071812152863,-0.21399886906147003,0.19501709938049316,0.45756250619888306,0.35480618476867676,1.9512076377868652,1.5680079460144043,1.2325652837753296,0.17426934838294983,1.048957109451294,-0.42002230882644653,-0.5388787984848022,-0.8899781107902527,-0.13198205828666687,0.2270001918077469,-0.5490520000457764,-2.3128318786621094,1.0554189682006836,2.1888928413391113,-0.1770925670862198,-1.5258519649505615,1.9919198751449585,0.37891629338264465,-0.48169249296188354,1.0940717458724976,0.45421159267425537
0.3168231268079786,0.31522561433552915,-1.1820352611920721,-0.4458252017707256,1.7303289220995726,0.41725846422506485,-1.169795656332071,0.7890059948850577,-0.43697807254380283,-0.38409289463621726,0.03595416483599262,1.2693946786660757,1.3593828207459293,-1.1588969117601808,1.2095148816480903,-1.7177835711139262,-0.6721299432138277,-0.6828137562132346,0.654377325065137,0.28692735221357557,0.7618394314928371,-0.3843934656133081,0.16306583810702485,-0.1349086044163439,-0.654796808795464,-0.4077933849179287,-0.2852055486364869,0.3420074785101721,0.30277777471271095,-0.5469960464745056,-0.007815385069457684,0.039372494412051345,0.022785494264644674,-0.004707213322098572,0.8789122982372035,-0.6531784198058754,0.3048287816192254,-0.4404815357093373,0.37527216447637846,-0.41498594501593244
-2.6759965298220996,0.025643876048618397,1.2056430653137562,-0.47542969913745714,1.6573743673614278,-1.4931258900284738,-1.9802436576922204,-0.9562974142081603,-0.571594072911714,-0.7604409783553958,-1.3455771575529143,1.263616491733784,-1.7229455584431095,2.1232025025876067,-0.7579446857401412,-1.1106812308261436,-1.169652270917828,-0.5515047891813939,-0.1034703014703325,0.4853114498671709,0.18491937439425077,-3.0950145230849166,-0.10850146656301973,-1.6968193422370481,0.3314507708024763,1.4882241165500625,0.771727096946246,-1.9123072233849954,-0.8994218594785865,-0.5286510336417682,-2.2578804178469882,0.54090656919102,0.6644830032700242,2.515046118624703,0.5393977963678863,-0.6561121541168302,0.6934938040386456,1.5226288853992955,0.6127542691800028,0.24022978709233134
-0.6646640300750732,-0.7277429699897766,-1.3719978332519531,0.7898392081260681,-0.08232343196868896,-1.2860552072525024,-1.6882563829421997,0.18334299325942993,-1.8748688697814941,0.49524563550949097,-0.1529494673013687,-0.9054166078567505,-1.6505082845687866,1.7247185707092285,0.31290045380592346,0.875023603439331,0.37109777331352234,-1.5864485502243042,-0.6863487958908081,1.9534454345703125,0.7872326374053955,0.4466139078140259,1.733019232749939,-1.521655797958374,-1.4325329065322876,-2.030848741531372,-0.16226035356521606,1.8371827602386475,0.4913674294948578,-0.0356539785861969,-0.29957637190818787,0.8835974335670471,1.4467520713806152,1.5240830183029175,0.7216824889183044,-1.3160613775253296,0.6270821690559387,-0.5697208642959595,1.074882984161377,-1.1323119401931763
-0.03057963944173553,0.12285611935660656,-2.91479883725,-2.859062235730586,0.5305709468370243,0.5478819731474318,-1.0339746523466324,0.502362102132013,-0.2829263665681814,-0.11370209890377692,-1.295417694875817,2.090586464381705,-1.8368119577244792,2.3609843486217805,-1.1610633512900692,-1.453739452627383,-0.3826283110886388,0.8171906890098918,0.3653424201788932,3.2923286959084948,-2.0667436100843655,0.25923103000221204,-0.17458909930420574,-1.2134411597330612,1.17361724598209,1.7560446668643492,-2.6635475641358344,-1.0131507007324365,1.1666044231650785,-0.981349653217948,-2.330282366417965,1.2829711306222216,0.33851639054386873,1.0539013423201458,-1.1395401665980898,0.6204541647998426,-3.297156552303611,0.5245256768512407,0.03655626083787275,-1.7766931708018245
0.7503704390893744,-0.5098008213455025,0.3661945999767582,0.8688656887164817,-0.09902996162954408,0.9420564444277174,-0.05203848360079999,-0.7227652239663044,0.9442940936442981,-0.133862674334722,-2.442106766157454,-0.9641297080449284,-0.6876461817138582,-0.24277149951715554,0.16552026936274622,-1.30827022186805,-1.5261528373762374,-0.7393997770043726,0.5023283148740957,0.641475110490191,0.7799110830661818,0.24727294316810045,0.4139282332324456,-0.8071947249922186,-2.9419287071823885,0.22400558488440814,-0.6054094982544569,-0.8866534482203527,0.55905003536864,-1.2523313678692185,0.44425745358044555,-0.6626805905590913,0.3839944426809243,-0.46340025482323766,0.15629394168180083,-1.5731703282841478,-0.5677871001242003,0.004443820938911373,-0.5813917764581622,-0.528332558918813
-0.6719062188217408,0.31384030915004446,1.580511093619659,-0.6859693228491828,0.3680442133757279,1.4906986536618256,-0.07457278594469186,0.7882008869570145,-0.4571626497145239,-1.954123766825289,-1.8061689670809404,1.3244099815017862,-1.964527649593855,0.03570350181345017,-0.7802429125955218,0.10588758599473391,1.0829209860896976,-0.3611588796963745,0.10358108666221341,-0.08133096534843742,-1.0352148513091142,0.7596366712185004,-0.347447498134009,-0.7966094244933299,1.8901845884989135,-0.4112629874697048,0.7009847398677711,-2.010969817277611,1.509229945557994,-1.1265677222504085,0.15955119033431597,1.2124907628028239,1.1305868529001695,-0.6172230130632315,-1.53589174002073,0.6829388124661796,-1.7515026069901865,-1.8471126987075555,1.8132580248716077,-0.9629584471451007
0.7170647103370225,1.8054180795475314,-0.8217076507130116,0.1447659369266341,1.1702725252636272,-0.33600592708147015,-0.9689706758433531,0.403620253523176,0.43449857992684565,-0.5146007274483767,-0.8299996213324732,1.0176477592059048,-0.9066531805621991,0.17158101145944926,-1.02885814178168,0.25150321752744803,-0.1788001764228102,0.6829317721096714,-0.3268482242360826,0.9201505137445264,-1.1173232282962227,-2.388173182273269,-0.7198943667726312,2.301264993885828,0.7458505801317649,0.5671077485708447,-1.5219393165198998,1.5232198701264617,0.4340320158528284,0.16126028361159433,-2.0588118066538854,0.6671462239493815,-0.8241755718015853,1.234513311607319,1.1948357867027442,-0.6283608933385869,-1.4793144984852367,0.8711161960453538,0.9860680745705098,-1.4603394817086575
-0.47564260626791643,0.3581291495592822,-0.18921990308243195,-0.03912256155544361,0.3199809636747646,0.24203307728787854,-0.45830075278346855,0.5432740586615822,1.8520298233321753,-0.8526739768271898,-0.23319658883120148,-0.2919724914815921,0.4842364344241134,-1.1618369992205133,-1.7282611355209334,-0.08948483908910912,0.35516520898358317,1.015300228452153,0.8618070774155884,0.7713324820620667,-0.2845124930569842,-1.304526090378295,-1.73920024572211,-0.7834920799845211,0.19075371561766363,0.8652745588060592,-0.35776479302362646,-1.319644171227585,1.1594010560945551,1.479128787763106,0.006546040783060862,0.2410647501196779,-0.06996323996517263,0.6793752993985179,0.3121289342954731,-0.31555694146768676,-0.1620091745297232,0.49100654688610146,0.7510106498233885,0.623364366183398
-1.212867486208894,2.030260191290468,-0.5698222719119088,-2.2264783456641806,0.9009867379853297,1.0641891837309005,-1.566346477122631,-0.81062542690385,0.5057511229345529,1.4198493697898076,-1.193991649512536,-0.20040938518718732,1.1391626231440506,-0.47962142960061555,2.2948970336161727,0.8977181142588108,0.5582390462082009,-0.11872228662906395,1.3655042761321021,1.426492653720177,0.5783902099702709,-0.5530199254848531,0.08010135018542579,-0.8407436422619605,0.0403208606711325,-0.7161270512065853,-0.23151230451520577,-1.3062006780789006,0.9547554888521356,-0.14192671501957865,-1.4008547355678247,-1.5932640351419303,-1.8639380334130429,2.0901406351271317,-1.1445036172038126,-1.0871865010315573,1.7463876532300864,-2.949866064168735,-0.5343037494966824,-0.8539197442552444
-0.456251646416865,-0.8577250389681224,-0.6448469258073717,-0.4834504152412942,2.0950890782851825,0.5601568206118943,-1.4042178806571188,2.0113981601160944,0.9111204073461886,0.16590134844436633,-2.2689796727918656,0.10085859100901456,-0.4910803273737545,0.8151051819961812,-0.19578444339171164,1.111828339321916,1.0638458771277284,-2.233898500945519,0.7452430753675078,-1.0784651290984058,-1.6994752527078445,-1.4955203682497054,0.38424302602501803,-0.2039927427656652,0.7750170135012324,-0.1124570074320066,-1.0679150362620362,-0.30044618823306823,0.8756685920380826,-1.9982747285408586,0.41862821048690657,1.06241957613266,0.014340774861170469,-0.5899453274470609,0.48716625446920486,0.8277826479625856,-1.5983626372413333,-0.579619091508014,-1.2429260267979976,-0.8101559345181061
0.9231823682785034,1.2076659202575684,-1.341111660003662,-0.5514242649078369,1.3612596988677979,-0.04631878808140755,1.0197381973266602,-0.6394615769386292,1.5510214567184448,-0.13403548300266266,-0.0016335152322426438,0.36462000012397766,-1.7941850423812866,1.207086443901062,0.17340712249279022,0.34197670221328735,-0.37464576959609985,1.8987069129943848,0.33243417739868164,0.7177273035049438,1.5839030742645264,-0.2919065058231354,-0.828504204750061,-0.8163095116615295,1.282295823097229,-1.5218253135681152,-0.42867031693458557,-1.550209403038025,0.826839029788971,-1.2135388851165771,-1.2524385452270508,-0.09492306411266327,0.04372762143611908,0.4438995122909546,0.5319579839706421,0.6843529939651489,-1.7553056478500366,1.2369742393493652,-1.3282794952392578,0.6622908711433411
2.126162602321989,-0.5646501019176502,1.1823162003971643,-2.4428089334550407,1.8937486867768596,1.455687250781427,-2.4547966147949047,0.3306896086801539,-0.14272772947231138,-2.503831132972222,0.8520733013313297,0.3395879543355168,-1.4751200672635736,0.39474028076758216,-1.403014758033692,1.12367305721783,1.9938240401159155,0.10676020324364269,1.056663269511864,2.104271046623381,0.4450141942802155,-1.6910646766130624,-1.880445285011036,0.1737227829771646,1.8889699823889323,1.5453050766304912,-0.25234844726186245,-0.5130861345917339,0.29551343732304813,-1.2462259100062067,0.1400134161954214,1.0525470623894433,-0.06457835248037097,1.7262069090686991,1.1086478111519011,0.7724525779697077,-0.6558860525915673,-0.6913924621693243,-0.1666297703110432,-0.4294775462260226
-1.0351145267486572,0.48913052678108215,-0.2533400058746338,-1.9481003284454346,-0.11655553430318832,0.8005969524383545,-0.7961540222167969,-0.38295233249664307,-0.3973731994628906,-0.7176269292831421,0.1569950133562088,-0.34471818804740906,-0.17120800912380219,0.5381161570549011,0.2263878434896469,1.5417290925979614,0.20525583624839783,1.9980649948120117,0.9535908699035645,-2.073478937149048,-0.11592629551887512,1.391069769859314,0.3030126988887787,1.0933469533920288,-0.10100022703409195,-0.6953996419906616,0.40249255299568176,-1.5076392889022827,0.08957508951425552,0.6588224768638611,-1.0376266241073608,0.6032726168632507,0.2625543177127838,-0.9795860052108765,2.132387399673462,0.8924850821495056,1.9964735507965088,0.23142533004283905,0.9800699353218079,-0.18478359282016754
0.4345556509948369,0.08874191963707387,-0.6108904932330426,1.139940540807974,-0.8927104175259261,-0.14913247473601648,0.2228833427774172,-0.3263380867041743,1.2065731748599091,-0.3098195862171006,-0.7435234552609051,1.0863038114831154,1.8714908622568676,-0.9688482314559251,-0.6126392789855518,-0.5023694248636742,1.1726676163225997,-0.4745135896497509,0.35689344730483574,-0.3026987385883033,1.8833807238564861,0.5487417959837876,-0.2683843801421879,-0.4871170589377084,2.1175142468555306,-0.7237896351218336,-0.19160675004781358,-1.233514550265673,1.2921500698240174,1.3569519924855296,1.5694012757898137,-0.10785503382668578,-0.5021090423267874,0.6972988571129113,0.5836436045681727,0.6476761956550947,0.21289292802449244,1.7701321517116961,-0.030198557565292848,0.9498351589119539
-0.8712393045425415,0.616610586643219,1.4457776546478271,-0.15818704664707184,0.5069687366485596,-0.46110913157463074,-0.9207247495651245,0.6269336938858032,-0.37209028005599976,1.2518789768218994,-0.23410530388355255,-1.1576887369155884,0.9203831553459167,1.1416640281677246,-0.8678293824195862,0.36034780740737915,-0.9351668953895569,0.16098877787590027,-0.23686164617538452,0.7207610011100769,0.44838300347328186,-1.7235442399978638,-0.7537441849708557,-0.13784737884998322,-2.401548385620117,-1.820093035697937,0.8039747476577759,-0.21027694642543793,-0.1556570678949356,-0.9278926849365234,-0.2633782923221588,-1.0581432580947876,0.26798832416534424,0.8132635951042175,0.31943345069885254,1.4268498420715332,0.43083858489990234,0.7580472826957703,0.4645051658153534,-2.1219370365142822
0.5929948091506958,-0.44962218403816223,-0.3698505759239197,0.016136204823851585,0.8807570338249207,1.5202584266662598,0.6933069825172424,0.6098048090934753,-0.7908979058265686,0.08540032058954239,0.7892284989356995,0.5939403772354126,-0.5119192600250244,-0.940527617931366,0.5667586326599121,1.5788904428482056,-0.25424277782440186,0.45721733570098877,-0.15354575216770172,0.7960747480392456,-1.7276771068572998,0.7133317589759827,-0.4219282269477844,0.33445799350738525,-0.5842084884643555,-0.10837605595588684,-1.486451506614685,-0.8980205059051514,0.8035447597503662,2.004843235015869,-2.3523926734924316,0.9357972741127014,1.0727717876434326,-0.8665301203727722,-1.5976306200027466,0.7486892938613892,0.5713794827461243,-0.6723266243934631,-0.6621316075325012,-0.3536388576030731
0.766296923160553,0.8861896991729736,0.8002312183380127,-1.8931416273117065,0.09737079590559006,0.7043595314025879,-0.6015461087226868,-0.9508434534072876,0.7102106809616089,0.7276303768157959,0.10393180698156357,-0.8541611433029175,-0.46602484583854675,0.5111457109451294,0.6188304424285889,2.1335461139678955,-0.9382097721099854,0.6293728947639465,-1.466026782989502,0.1881379932165146,-0.7770766615867615,-0.5291846990585327,-0.4784427583217621,-0.11119875311851501,-0.7749735713005066,-0.017312265932559967,-0.23406559228897095,-1.5596400499343872,1.4609912633895874,0.7338076233863831,-0.17730899155139923,-1.3965973854064941,-1.478201985359192,-1.0446923971176147,0.4583189785480499,1.3828729391098022,-0.9555739760398865,0.29819875955581665,0.8693992495536804,-0.11541546136140823
0.931279718875885,0.5763573050498962,2.8516509532928467,1.0068111419677734,-0.3221006691455841,1.689510464668274,0.36036980152130127,1.025997519493103,-0.6927417516708374,0.16092534363269806,-0.34313729405403137,0.5960475206375122,1.0572763681411743,-1.2566109895706177,-0.30651238560676575,0.09160067141056061,0.22887882590293884,-0.5385942459106445,-1.284618854522705,2.452866554260254,-0.056100986897945404,0.7945308089256287,0.46086958050727844,1.9377843141555786,0.02848712168633938,-1.438626766204834,-0.7955009341239929,0.33250588178634644,0.8362677693367004,-0.5020610094070435,-0.21370317041873932,0.03444632142782211,0.8060274124145508,1.1872227191925049,0.7074506282806396,-0.5857694149017334,1.2344046831130981,-0.9373867511749268,-0.05428776144981384,0.5171816945075989
2.4428560733795166,-2.596933364868164,-0.5056362748146057,0.6225587129592896,0.6045735478401184,-0.4004957377910614,0.7088717222213745,-0.4030974507331848,-0.7912449240684509,-1.7649644613265991,0.3134599030017853,0.8654820919036865,0.9408847689628601,1.1558043956756592,-0.13181212544441223,0.733884871006012,1.5587714910507202,-3.0163867473602295,0.24894306063652039,-0.42558175325393677,-1.3655840158462524,0.42734599113464355,-1.9789063930511475,-0.44531041383743286,1.295936942100525,-0.5271651744842529,-0.007756771054118872,-0.32466310262680054,-0.48001760244369507,0.21883641183376312,-1.1754987239837646,-0.5396604537963867,0.7820589542388916,0.5055378079414368,-0.14474914968013763,0.35336753726005554,-1.3465862274169922,0.5761324167251587,1.485871434211731,0.4671717882156372
-1.7022671699523926,-2.0809195041656494,1.1169428825378418,-0.3548177480697632,0.9061812162399292,2.250793933868408,-0.06394549459218979,0.6194199323654175,-0.9227308034896851,-0.6354898810386658,-0.03328924626111984,0.49424993991851807,0.7551437616348267,1.2023022174835205,0.5179697275161743,-1.2951818704605103,1.0620580911636353,-1.2461718320846558,0.4329865574836731,-0.2017420083284378,1.186585783958435,0.7262483835220337,1.4872514009475708,-0.5233772993087769,0.10593260079622269,0.12966592609882355,-1.1110527515411377,0.44923409819602966,-1.6154478788375854,0.12037267535924911,-0.15663737058639526,-1.788370966911316,-0.47110816836357117,-0.1291877031326294,0.4708103835582733,1.999744176864624,-1.3162312507629395,1.2453609704971313,0.4293721318244934,-0.7673789262771606
1.2156489733246865,1.8263061554190747,-0.807320251996671,-5.485639731286217,2.5225533346840487,2.2214026185009894,-3.0929057844202448,1.8461822706225877,-0.04291966854633639,-3.3114221514798046,-0.6051521062718133,1.4957234275915707,-1.6944300351358437,0.9119209318434067,-0.7429907500144564,-1.0512724657955808,0.6330282829179363,0.2260918830132212,-1.7544923111979251,2.307926320570567,-0.4522192060681971,-1.282706895189483,2.2625470098745737,0.628207758762779,4.682867240171506,3.4662783547210965,-0.8576315881672776,-0.9924860753502212,-1.8788252727286714,-2.8980872903374744,-1.3227650776972144,1.095547928765359,1.9852240513639972,0.9631359256046372,1.60945246055164,3.1346420403401494,-0.5005859541336473,1.1568981498787891,1.3745152571675967,-0.6012930533446449
-0.20047797679711288,0.19960484327538824,-0.5650071600193032,-2.2761487947869496,-0.25545092757800125,1.7725747295799406,-0.707584760196092,2.2762788437457884,-1.7910798122713432,-0.33106132920141706,0.031644763772733675,-0.578518323780051,-0.8357154161105439,-0.36857712085398087,0.15750129758188222,-1.586204801829697,0.47014556897827153,-0.7167133259201509,0.6729063834297079,-2.5972574254219065,-2.2832113574852597,-1.2093513388794461,-1.3698953766908861,-0.2089561690117214,0.5968561752767794,0.8734361672211672,0.7204996398530973,1.242056142991305,0.5732427092714576,-1.8998900270372152,0.39008792651237334,-0.6066051779231643,-0.2925083683503264,0.32033957373558314,-0.6156408546604939,-0.09760819414368832,1.9907969253339992,0.46156737486582633,0.7140364978991501,0.32377119716726244
1.1520541906356812,1.2394733428955078,-0.6869282722473145,0.0863824188709259,-1.6144956350326538,0.7532762885093689,-0.09891313314437866,0.19497089087963104,1.509460687637329,-1.057375431060791,1.8564532995224,-0.7893295288085938,0.19363704323768616,0.47401928901672363,0.15714576840400696,0.11630377173423767,-1.170647144317627,-0.881988525390625,-0.4857933223247528,0.17436861991882324,-1.5004383325576782,0.15594395995140076,-1.4269778728485107,0.18985562026500702,-0.4651367962360382,-1.2264940738677979,1.0172404050827026,0.7154018878936768,-0.6407257914543152,-1.196582555770874,0.1105286180973053,-0.364685982465744,1.5650430917739868,-0.2514306902885437,0.3532556891441345,0.47875741124153137,-0.829831063747406,-0.3938792943954468,1.065781593322754,-0.6684144139289856
1.6543419361114502,0.5659292340278625,0.6206483840942383,0.3954443633556366,1.3775544166564941,-0.7261378765106201,-0.7346117496490479,-0.8324559926986694,-0.19568289816379547,-1.7281339168548584,-1.2749136686325073,-0.09844142198562622,0.3919050097465515,1.170050859451294,-0.8696454763412476,1.3407655954360962,-0.2254389375448227,1.2238458395004272,-0.48859864473342896,-0.004922916647046804,-1.4057140350341797,-0.9071459174156189,-2.425416946411133,-0.7025436162948608,-0.5763756632804871,-0.2370927631855011,-0.7484093904495239,1.3672583103179932,0.928530216217041,0.7419846057891846,-1.3360233306884766,-0.27330759167671204,1.3968234062194824,0.7511165142059326,-0.19997596740722656,0.700374186038971,-0.9586015939712524,-0.0814228281378746,0.5631418228149414,-0.9709014296531677
-0.1835165971914529,-0.716657497995331,-1.0559466258581633,-1.070372129625025,0.23032535848480246,0.6800835424863007,-0.6233784936860252,0.60677785026757,-1.4975516291598376,0.054379780063039784,-1.4148651885884533,1.81871644336597,2.7475909815073303,0.6581031905704335,0.8268716845044626,0.33514353250666173,1.275174764861385,-0.9651296534864352,0.523608609135272,1.7794467192341552,-1.478404126914322,-1.063734224011116,1.2533962434864383,-1.5965681796156053,1.7001959014139756,0.11529745529480798,1.980716615060886,-0.17454128279849906,0.41775393102737585,1.003719635180925,-0.23887598986930053,-0.35688230156827727,-1.1825059123226958,2.9589041603623643,2.2889861994130034,0.28313614537445775,-0.7579565463177839,-0.4913443113553214,-1.3351173719701463,-0.11838812776182282
0.5686473383027997,0.5190321877476302,0.7566972854477081,-1.441994665402986,0.8906045049843019,-1.1132532573757994,-0.1372904486436929,0.8125888422136908,-0.9777036859521294,-0.30781240806332,-1.1657642522018081,-0.6525118778780712,-0.11379655848816272,1.2984463795577414,-0.8185220968701905,-1.3752611565506534,0.6418127459606016,1.47836254817154,-0.3958612667862337,0.006104638767283732,-2.013936180204431,0.2889772039519868,0.1989626652266825,-1.324770036955356,-0.8874333232987415,1.0342198239721103,-0.18303550895784615,0.2846711080461155,-0.35023513294215824,-2.2244336335457575,-0.8598209182008343,-0.25549104619560536,1.5867425950687408,1.288896363321219,0.47871354832282714,-1.2750372662596656,-1.68265507247598,-0.8990558508741245,-1.0919226861727171,-0.3463226616993995
-0.6976849436759949,0.12104330956935883,0.6745568513870239,0.3606138825416565,-1.3262985944747925,-0.47689592838287354,1.6840060949325562,-1.0693439245224,-0.14022138714790344,0.6692933440208435,0.47830045223236084,-0.5224266052246094,0.02573808841407299,-1.164900779724121,1.0305278301239014,0.9677629470825195,0.7379031181335449,0.16950389742851257,0.19476106762886047,0.6845844388008118,0.31346121430397034,-1.3778635263442993,0.5886473655700684,2.2931196689605713,0.5455029010772705,1.3461774587631226,0.9400922656059265,-0.14297260344028473,-0.8566986322402954,-0.1811983585357666,0.5507427453994751,0.10971131175756454,0.7411611080169678,-0.01963132619857788,-1.7373244762420654,0.7337480783462524,-0.5581838488578796,-0.18212059140205383,-0.04502090811729431,0.16709141433238983
0.0454740896821022,1.2775022983551025,0.0872981995344162,0.29864558577537537,1.1774871349334717,-0.019651848822832108,-0.07211470603942871,0.2467750757932663,-0.21187400817871094,-1.916667103767395,0.694328248500824,-0.6431804299354553,-1.1927553415298462,-1.3292994499206543,0.49925029277801514,0.5018202066421509,-1.3113800287246704,0.3171342611312866,-0.544776439666748,1.2003406286239624,-0.17644406855106354,-0.9195870161056519,-0.4344750940799713,-0.31487882137298584,1.0503534078598022,-0.0785374715924263,-0.9290705919265747,-0.8331467509269714,-1.2895264625549316,-0.98427814245224,0.0940227210521698,0.4484873116016388,-0.5592799186706543,0.9531598091125488,-1.0939754247665405,1.5019941329956055,1.7944622039794922,-1.1456258296966553,0.8355053067207336,-0.5087417364120483
-0.20525843652540443,0.1817573800675681,0.8184679870302175,-1.8840228314833432,0.20124162927594536,-1.0887876372077643,-0.7120692857322433,-1.6113198463516114,0.42749002122389684,0.2348023710672842,0.8993779369617159,0.8294935950954544,-0.8982445286063391,0.37667163244237833,-1.1454456983041539,1.685006822745318,-1.6186475244698213,0.694936869307264,0.14676202037540817,1.0329712802046704,0.04958366554595983,-1.8978057394874703,-0.8934052730775857,-0.20803024260510988,1.2281718426289945,-0.38360727309300313,0.2639511035925032,-2.4144535317435474,-1.4038262207296581,-0.4521561438914071,-0.03963940237350394,-1.394382628544273,1.9682805273731447,3.3510687106565573,3.116769556139694,-1.2496994277686988,0.2883404143343449,-0.07053650505099476,-1.1229609846957744,-2.3036014250575167
0.6785762906074524,-0.9125674366950989,0.6699025630950928,-0.6414375305175781,0.3583953082561493,0.5161870121955872,-2.6812610626220703,0.6585841178894043,-0.4939384460449219,-0.2766333520412445,-0.5880591869354248,-1.6666725873947144,-0.5085067749023438,-1.2625722885131836,-0.20802664756774902,-1.4845161437988281,1.4760462045669556,-1.6818686723709106,0.8440519571304321,0.16483618319034576,0.2930545508861542,0.7444597482681274,-0.3429977595806122,-0.20378637313842773,-0.778647780418396,-0.42885512113571167,-2.1877472400665283,2.1137092113494873,-0.33513957262039185,1.2595889568328857,-0.5654802918434143,0.5534197092056274,-0.4070073962211609,0.7563300132751465,-0.021367743611335754,0.3995077908039093,1.0203237533569336,0.4456426799297333,0.9865648150444031,0.0187689196318388
1.2459650577171437,1.5515776959341085,1.6406889314737414,-1.8603158919448886,0.7926475835745379,1.2373887527988279,-0.02605895943800407,0.6385582982939202,0.8554048404199298,-0.2156549689089402,-1.1019396297809565,0.5865642135903332,-1.8573855785258875,0.5989761776274718,-2.048385764256582,-0.7175222801858058,0.1365522564266437,1.251501014654377,1.2419475631983792,1.0308363930101976,0.6947324066214922,-3.340797657700713,-0.637453305033385,-0.43296899045981396,2.619815811760675,0.08483227190753961,-2.4178836839914286,-2.6220519778918208,-1.5576964103813746,0.5862466578160854,-0.9110604701592837,-1.6927379943897607,0.02877048817008543,1.1048222520700366,0.6924494046933897,1.8322112628031142,-0.22554558706363848,0.8310565286861407,-0.09532771221018607,0.0934958772368647
-1.1040140390396118,-0.7005196809768677,0.8820241689682007,-0.7268152236938477,-1.6414999961853027,0.2751591205596924,0.07507793605327606,1.361621379852295,-1.0962607860565186,-1.1016488075256348,-0.44221222400665283,-1.350462555885315,0.18489205837249756,0.8428399562835693,-0.9875978827476501,-0.592877209186554,0.7089337110519409,1.6088237762451172,1.9952819347381592,0.033269256353378296,1.3777114152908325,0.018834227696061134,-0.800812304019928,1.315999984741211,1.3788188695907593,0.11855658888816833,0.6739554405212402,-0.162761852145195,0.860218346118927,-0.609889030456543,0.21639597415924072,1.7153156995773315,1.3676550388336182,0.04764861240983009,-0.7214639782905579,0.4585261940956116,0.6900495290756226,-0.6161096692085266,-0.4480806887149811,1.5757039785385132
-0.067531518638134,-0.381603866815567,1.0744119882583618,1.6415995359420776,0.1444288045167923,1.0605756044387817,1.2880502939224243,0.17877167463302612,-0.012873434461653233,-1.7217048406600952,0.09378714114427567,-0.9441415667533875,0.8211672902107239,0.41897931694984436,0.0614924281835556,-0.5385591983795166,-0.5501052737236023,1.4917985200881958,-0.4532428979873657,-0.33525949716567993,1.3095306158065796,-0.06514238566160202,-0.20355863869190216,0.9972646236419678,-0.40836891531944275,1.3869673013687134,-0.07204700261354446,0.054079148918390274,-0.7197906374931335,-1.01381254196167,-0.14323778450489044,0.6505064964294434,0.5070967078208923,-0.8761963844299316,1.1350960731506348,1.0724222660064697,1.2827084064483643,0.03880225121974945,1.5489503145217896,1.6074780225753784
0.5868819355964661,0.24942849576473236,-1.7071809768676758,-0.46954888105392456,-0.2102220058441162,0.2428731769323349,0.26897069811820984,1.6210999488830566,1.2260183095932007,-1.1316590309143066,1.3382848501205444,0.5474191308021545,0.894374430179596,0.5793596506118774,1.406568169593811,-1.3405431509017944,-1.092797040939331,0.2683388888835907,2.361010789871216,1.9613384008407593,-0.6795762181282043,-0.14478041231632233,-1.506868600845337,-1.5146723985671997,-0.27987396717071533,0.9137108325958252,2.3587865829467773,0.5935689806938171,2.9128105640411377,0.6849037408828735,-0.3665044903755188,0.8172908425331116,0.7793298363685608,-2.0038981437683105,0.6507865190505981,-2.3950746059417725,1.1121965646743774,-1.3740237951278687,0.7715207934379578,-0.05099695920944214
-1.0817313311636905,1.7371135519827257,0.2750167960213808,0.4086450454103635,-1.096885613819715,-0.3622891906468789,-2.134921700655389,1.8189551931631793,1.147801650710497,-0.7211652959573035,-0.43022788715199156,0.9489651068513993,-0.6885655010228007,-0.09733420937086484,1.2667968801745284,0.5290849661741571,0.24047105420049408,-0.9219685979719365,1.0134277645298113,0.5760880836977682,-0.02038144262785968,0.7882970889589017,-0.5288634962371203,-0.4984889754279735,0.9566843219491599,1.9200966565027204,0.94120600435648,-1.2017314331299662,-0.506084047777836,-0.751998781175661,2.313846915934126,-0.8094084571590264,-0.3975236714803082,1.6312699148084915,-0.6451531215253703,0.2275819678767767,-0.6902856730762217,-0.16659258418688064,1.305507381491784,-1.8892487574718613
-0.736804354327989,-0.31939533751751337,-1.4024624550137956,-0.39328653427748006,-0.5000007506710435,-0.23824292442339978,-1.6654706929061411,0.38275618913105913,-0.3115393629314654,0.6709534951017283,1.6944683791469242,1.2488747302694325,-0.8688562694927005,0.4610134006074048,0.5814763824515997,-1.6987085833353441,0.5711721073078343,-2.430235564580157,-1.4147281975999144,0.7354048337911656,-1.0129641528437676,0.47377737035141476,-0.01941352700028768,-0.652993818319067,0.5660379842509267,-0.1533871985287844,-1.733944814225679,-1.4488444699360166,-0.1548472930094759,1.172793482043484,-0.011495416725859853,2.2001131204350823,1.5951704568380407,-0.166016773000433,1.1309099853598092,0.6296661785651675,-1.9588328568196276,-1.2178158994925858,-0.6090187440332118,-0.3297352129924493
